{"learner":{"attributes":{"scikit_learn":"{\"_estimator_type\": \"regressor\"}"},"feature_names":["temperature_2m_mean","precipitation_sum","wind_speed_10m_max","wind_direction_10m_dominant","cloud_cover"],"feature_types":["float","float","float","float","float"],"gradient_booster":{"model":{"gbtree_model_param":{"num_parallel_tree":"1","num_trees":"100"},"iteration_indptr":[0,1,2,3,4,5,6,7,8,9,10,11,12,13,14,15,16,17,18,19,20,21,22,23,24,25,26,27,28,29,30,31,32,33,34,35,36,37,38,39,40,41,42,43,44,45,46,47,48,49,50,51,52,53,54,55,56,57,58,59,60,61,62,63,64,65,66,67,68,69,70,71,72,73,74,75,76,77,78,79,80,81,82,83,84,85,86,87,88,89,90,91,92,93,94,95,96,97,98,99,100],"tree_info":[0,0,0,0,0,0,0,0,0,0,0,0,0,0,0,0,0,0,0,0,0,0,0,0,0,0,0,0,0,0,0,0,0,0,0,0,0,0,0,0,0,0,0,0,0,0,0,0,0,0,0,0,0,0,0,0,0,0,0,0,0,0,0,0,0,0,0,0,0,0,0,0,0,0,0,0,0,0,0,0,0,0,0,0,0,0,0,0,0,0,0,0,0,0,0,0,0,0,0,0],"trees":[{"base_weights":[-3.683156E-7,4.2654667E0,-5.2947793E0,4.7279577E0,-6.4612856E0,-2.6989083E0,-7.9409485E0,5.596005E0,1.7026148E0,7.493701E0,-9.214053E0,2.165152E0,-3.4062088E0,-1.8706894E-1,-8.422779E0,4.415273E0,1.0449201E1,3.6739123E0,-5.003721E0,-8.858236E-2,3.7734253E0,-1.6205133E1,-1.455134E0,-4.2662396E0,6.349644E0,-3.6168697E0,9.400345E0,-1.0849655E1,3.1081166E0,-8.640785E0,1.5559387E0,4.9156103E0,-9.26624E0,1.5276995E1,3.6704483E0,2.0845454E0,1.0159168E1,-7.3501744E0,6.389272E0,2.80069E-1,-3.1993103E-1,-5.4687667E0,-2.2798967E0,-7.4912643E0,8.493701E0,3.4003448E0,-6.666249E0,6.1951036E0,2.8189528E0,-6.905672E0,-2.696377E0,2.244751E0,4.6300693E0,-4.126575E0,-3.1993103E-1,-8.906299E0,9.437446E0,-1.1029498E1,-7.608273E0,-1.5199311E0,3.893701E0,-1.3972046E0,1.5902487E0,-3.7115402E0,1.8734254E0,-3.0298967E0,5.0903316E0,-3.2832186E0,1.8212769E0,-8.140301E-3,1.7904562E0,5.2441244E0,9.634598E-1,-8.6653537E-1,-5.9055963E0,2.7281106E0,-1.069931E0,-3.8332183E0,1.6734254E0,3.0451035E0,2.80069E-1,1.1734253E0,2.80069E-1,-2.9598794E0,4.2010346E-1,2.363762E0,-1.3473793E0,-1.0330089E0,-4.357205E0,-2.7958758E0,-6.872747E-1,1.030069E0,-1.9931031E-2,-2.9548967E0,-7.699311E-1,1.0481104E0,4.0481105E0,-3.628436E0,-1.7941577E0,-2.0497847E0,-2.93177E0,-3.1993103E-1,1.6201035E0],"categories":[],"categories_nodes":[],"categories_segments":[],"categories_sizes":[],"default_left":[0,0,0,0,0,0,0,0,0,0,0,0,0,0,0,0,0,0,0,0,0,0,0,0,0,0,0,0,0,0,0,0,0,0,0,0,0,0,0,0,0,0,0,0,0,0,0,0,0,0,0,0,0,0,0,0,0,0,0,0,0,0,0,0,0,0,0,0,0,0,0,0,0,0,0,0,0,0,0,0,0,0,0,0,0,0,0,0,0,0,0,0,0,0,0,0,0,0,0,0,0,0,0],"id":0,"left_children":[1,3,5,7,9,11,13,15,17,19,21,23,25,27,29,31,33,35,37,39,-1,41,43,45,47,49,51,53,55,57,59,61,63,65,67,69,71,73,75,-1,-1,-1,-1,77,79,81,83,-1,85,87,89,91,-1,-1,-1,93,95,97,99,-1,101,-1,-1,-1,-1,-1,-1,-1,-1,-1,-1,-1,-1,-1,-1,-1,-1,-1,-1,-1,-1,-1,-1,-1,-1,-1,-1,-1,-1,-1,-1,-1,-1,-1,-1,-1,-1,-1,-1,-1,-1,-1,-1],"loss_changes":[2.6220844E4,3.2204883E3,3.5367686E3,1.6107998E3,1.1062477E3,9.1218787E2,9.548545E2,2.6986875E3,1.8559889E3,1.9387039E2,1.2240135E3,9.421007E2,6.545029E2,5.958852E2,5.3772266E2,2.694705E3,2.9874834E3,1.0920272E3,9.024223E2,3.9941149E0,0E0,7.0483154E1,7.842581E2,2.8026575E2,1.0021062E3,6.6858105E2,1.3804053E2,9.903519E1,1.0726141E3,4.9814844E2,1.1261644E2,1.4038809E3,7.516433E2,2.4883057E3,1.4697107E3,7.218506E2,1.01203345E3,1.429112E3,1.9397914E2,0E0,0E0,0E0,0E0,6.2396356E2,5.31463E1,1.391262E0,2.9776163E2,0E0,7.012355E2,1.2424644E3,4.5934644E2,8.4708185E0,0E0,0E0,0E0,4.625244E0,1.6984119E2,2.9879102E2,2.1525879E2,0E0,4.3124924E1,0E0,0E0,0E0,0E0,0E0,0E0,0E0,0E0,0E0,0E0,0E0,0E0,0E0,0E0,0E0,0E0,0E0,0E0,0E0,0E0,0E0,0E0,0E0,0E0,0E0,0E0,0E0,0E0,0E0,0E0,0E0,0E0,0E0,0E0,0E0,0E0,0E0,0E0,0E0,0E0,0E0,0E0],"parents":[2147483647,0,0,1,1,2,2,3,3,4,4,5,5,6,6,7,7,8,8,9,9,10,10,11,11,12,12,13,13,14,14,15,15,16,16,17,17,18,18,19,19,21,21,22,22,23,23,24,24,25,25,26,26,27,27,28,28,29,29,30,30,31,31,32,32,33,33,34,34,35,35,36,36,37,37,38,38,43,43,44,44,45,45,46,46,48,48,49,49,50,50,51,51,55,55,56,56,57,57,58,58,60,60],"right_children":[2,4,6,8,10,12,14,16,18,20,22,24,26,28,30,32,34,36,38,40,-1,42,44,46,48,50,52,54,56,58,60,62,64,66,68,70,72,74,76,-1,-1,-1,-1,78,80,82,84,-1,86,88,90,92,-1,-1,-1,94,96,98,100,-1,102,-1,-1,-1,-1,-1,-1,-1,-1,-1,-1,-1,-1,-1,-1,-1,-1,-1,-1,-1,-1,-1,-1,-1,-1,-1,-1,-1,-1,-1,-1,-1,-1,-1,-1,-1,-1,-1,-1,-1,-1,-1,-1],"split_conditions":[1.4168918E1,3.4533972E2,2.0979334E1,1.0248082E1,1.0914888E1,5.1461037E1,7.3286705E1,4.3999996E0,4.6E0,-2.6644166E0,2.5668333E0,2.8559578E1,2.1300001E1,2.2293915E1,3.623861E1,3.7169018E1,1.49000025E1,2.744749E1,2.2882744E2,-3.926917E0,3.7734253E0,3.5653415E2,3.5330325E2,9.201785E0,1.835647E1,1.7640919E1,1.5154331E1,1E-1,6.791316E0,1.8081007E2,1E-1,1.4345751E1,4.5107872E1,1.8032032E1,2.621E0,4E-1,1E-1,1.8785635E2,2.429558E2,2.80069E-1,-3.1993103E-1,-5.4687667E0,-2.2798967E0,2.5567604E1,1.7E0,1.6031416E1,1.91835E1,6.1951036E0,4.1987103E1,1.8398083E1,7.8842476E1,1.4798081E1,4.6300693E0,-4.126575E0,-3.1993103E-1,2E-1,1.8089775E1,7.3999996E0,2.7311075E2,-1.5199311E0,2.1956415E1,-1.3972046E0,1.5902487E0,-3.7115402E0,1.8734254E0,-3.0298967E0,5.0903316E0,-3.2832186E0,1.8212769E0,-8.140301E-3,1.7904562E0,5.2441244E0,9.634598E-1,-8.6653537E-1,-5.9055963E0,2.7281106E0,-1.069931E0,-3.8332183E0,1.6734254E0,3.0451035E0,2.80069E-1,1.1734253E0,2.80069E-1,-2.9598794E0,4.2010346E-1,2.363762E0,-1.3473793E0,-1.0330089E0,-4.357205E0,-2.7958758E0,-6.872747E-1,1.030069E0,-1.9931031E-2,-2.9548967E0,-7.699311E-1,1.0481104E0,4.0481105E0,-3.628436E0,-1.7941577E0,-2.0497847E0,-2.93177E0,-3.1993103E-1,1.6201035E0],"split_indices":[0,3,0,0,2,3,3,1,1,0,0,3,1,0,2,2,1,2,3,0,0,3,3,3,2,2,0,1,3,3,1,3,2,3,0,1,1,3,3,0,0,0,0,2,1,0,0,0,3,0,3,0,0,0,0,1,2,1,3,0,0,0,0,0,0,0,0,0,0,0,0,0,0,0,0,0,0,0,0,0,0,0,0,0,0,0,0,0,0,0,0,0,0,0,0,0,0,0,0,0,0,0,0],"split_type":[0,0,0,0,0,0,0,0,0,0,0,0,0,0,0,0,0,0,0,0,0,0,0,0,0,0,0,0,0,0,0,0,0,0,0,0,0,0,0,0,0,0,0,0,0,0,0,0,0,0,0,0,0,0,0,0,0,0,0,0,0,0,0,0,0,0,0,0,0,0,0,0,0,0,0,0,0,0,0,0,0,0,0,0,0,0,0,0,0,0,0,0,0,0,0,0,0,0,0,0,0,0,0],"sum_hessian":[1.159E3,6.42E2,5.17E2,6.16E2,2.6E1,2.62E2,2.55E2,4.78E2,1.38E2,4E0,2.2E1,3.3E1,2.29E2,1.5E1,2.4E2,3.86E2,9.2E1,1.07E2,3.1E1,2E0,2E0,1.1E1,1.1E1,1.3E1,2E1,2.26E2,3E0,3E0,1.2E1,2.35E2,5E0,3.73E2,1.3E1,5.3E1,3.9E1,8.7E1,2E1,2.6E1,5E0,1E0,1E0,8E0,3E0,7E0,4E0,3E0,1E1,3E0,1.7E1,4.8E1,1.78E2,2E0,1E0,2E0,1E0,4E0,8E0,6.8E1,1.67E2,1E0,4E0,1.4E1,3.59E2,1.1E1,2E0,3E0,5E1,5E0,3.4E1,5.7E1,3E1,9E0,1.1E1,2E1,6E0,4E0,1E0,5E0,2E0,3E0,1E0,2E0,1E0,7E0,3E0,1E1,7E0,3.4E1,1.4E1,9E0,1.69E2,1E0,1E0,3E0,1E0,4E0,4E0,5.5E1,1.3E1,1.26E2,4.1E1,1E0,3E0],"tree_param":{"num_deleted":"0","num_feature":"5","num_nodes":"103","size_leaf_vector":"1"}},{"base_weights":[-1.0195821E-2,2.9842403E0,-3.727208E0,3.948093E0,-3.8319436E-1,-1.8782393E0,-5.6121745E0,2.6456258E0,8.142134E0,-1.1708343E1,9.2650115E-1,-1.4557867E0,-6.938248E0,8.205971E0,-5.753286E0,3.7553263E0,-1.5381376E0,8.943737E0,-5.081847E0,-1.3821458E1,2.6812901E0,2.4446852E0,-1.0043354E1,-2.326062E0,5.3408384E0,-1.2049675E1,2.2351012E0,3.1228526E0,5.6983453E-1,-5.894176E0,1.0525316E0,-7.4083166E0,4.2813115E0,-1.2852615E1,-6.246507E-1,7.6045575E0,2.590469E1,-5.71897E0,-5.30622E0,8.8194685E0,3.885647E-1,-1.18493E1,2.5568774E0,-1.7845552E0,-7.5706754E0,9.593292E0,-2.1032526E0,-4.0916505E0,-6.6185915E-1,-2.7564788E0,2.3747404E0,-4.4305773E0,-6.6666365E0,-1.2919413E0,2.9856262E0,-3.8467362E0,2.7997913E0,5.620755E0,1.0605904E0,-1.0084683E0,-4.2235546E0,4.5340243E-1,-2.0042987E0,6.8382573E0,2.086044E0,8.492608E0,1.3615007E0,5.553757E-1,-2.9900684E0,3.2857451E0,-3.7819455E0,1.3347064E0,-5.693421E-1,-2.0206804E0,-4.6445513E0,-3.9936247E-1,-2.8111305E0,-2.6047566E0,2.0331602E0,3.2669094E0,-1.8668399E0,-1.3919697E0,1.0487558E0,5.108803E-1,-1.8891197E0,-1.7264259E0,-1.8134594E-1,-2.5939734E0,-1.6584959E0,-2.719414E-1,1.2555805E0],"categories":[],"categories_nodes":[],"categories_segments":[],"categories_sizes":[],"default_left":[0,0,0,0,0,0,0,0,0,0,0,0,0,0,0,0,0,0,0,0,0,0,0,0,0,0,0,0,0,0,0,0,0,0,0,0,0,0,0,0,0,0,0,0,0,0,0,0,0,0,0,0,0,0,0,0,0,0,0,0,0,0,0,0,0,0,0,0,0,0,0,0,0,0,0,0,0,0,0,0,0,0,0,0,0,0,0,0,0,0,0],"id":1,"left_children":[1,3,5,7,9,11,13,15,17,19,21,23,25,27,29,31,33,35,-1,37,-1,39,41,43,45,47,49,-1,-1,51,53,55,57,59,61,63,65,67,-1,69,71,73,-1,75,77,79,81,-1,-1,83,-1,85,87,-1,89,-1,-1,-1,-1,-1,-1,-1,-1,-1,-1,-1,-1,-1,-1,-1,-1,-1,-1,-1,-1,-1,-1,-1,-1,-1,-1,-1,-1,-1,-1,-1,-1,-1,-1,-1,-1],"loss_changes":[1.2922335E4,2.0885054E3,1.7948154E3,2.7097583E3,2.146727E3,5.520918E2,5.4638525E2,1.7839392E3,2.5239517E3,7.779409E2,2.1896067E3,1.455667E3,9.647103E2,2.1917633E1,2.4975586E2,1.8109062E3,8.291574E2,2.4150889E3,0E0,3.373789E2,0E0,1.503915E3,6.3746606E2,6.027682E2,9.065354E2,1.7326697E2,2.4866507E2,0E0,0E0,2.5197656E2,7.501427E1,1.3885967E3,3.0609004E3,2.2484558E1,9.9325635E2,9.095801E2,2.8244385E2,2.1139763E2,0E0,1.4177249E3,8.254101E2,1.7435596E2,0E0,6.68455E2,3.77896E2,4.3683765E2,1.7245282E2,0E0,0E0,8.966818E1,0E0,4.4743237E2,3.1506055E2,0E0,2.7139446E1,0E0,0E0,0E0,0E0,0E0,0E0,0E0,0E0,0E0,0E0,0E0,0E0,0E0,0E0,0E0,0E0,0E0,0E0,0E0,0E0,0E0,0E0,0E0,0E0,0E0,0E0,0E0,0E0,0E0,0E0,0E0,0E0,0E0,0E0,0E0,0E0],"parents":[2147483647,0,0,1,1,2,2,3,3,4,4,5,5,6,6,7,7,8,8,9,9,10,10,11,11,12,12,13,13,14,14,15,15,16,16,17,17,19,19,21,21,22,22,23,23,24,24,25,25,26,26,29,29,30,30,31,31,32,32,33,33,34,34,35,35,36,36,37,37,39,39,40,40,41,41,43,43,44,44,45,45,46,46,49,49,51,51,52,52,54,54],"right_children":[2,4,6,8,10,12,14,16,18,20,22,24,26,28,30,32,34,36,-1,38,-1,40,42,44,46,48,50,-1,-1,52,54,56,58,60,62,64,66,68,-1,70,72,74,-1,76,78,80,82,-1,-1,84,-1,86,88,-1,90,-1,-1,-1,-1,-1,-1,-1,-1,-1,-1,-1,-1,-1,-1,-1,-1,-1,-1,-1,-1,-1,-1,-1,-1,-1,-1,-1,-1,-1,-1,-1,-1,-1,-1,-1,-1],"split_conditions":[1.4168918E1,3.0324963E2,2.0979334E1,2.719431E2,3.057447E2,3.3061253E1,1.1345712E1,2.4333997E2,9.599999E0,1.0543917E1,3.1492285E1,2.744749E1,2.011511E2,2.246683E1,3.623861E1,1.1345712E1,2.4506198E2,3.4999998E0,-5.081847E0,-1.5498332E0,2.6812901E0,3.1494186E2,3.9E0,3.242644E2,2.9407835E1,3.7169018E1,1.7029333E1,3.1228526E0,5.6983453E-1,2.3079332E1,1E-1,1.01653786E2,1.31041975E1,-2.2623336E0,9.645999E0,2.7311075E2,9.645999E0,2.4363249E1,-5.30622E0,2.9154442E1,1.8089775E1,1E-1,2.5568774E0,2.6739542E1,2.6983194E1,3.118099E2,3.1492285E1,-4.0916505E0,-6.6185915E-1,3.510323E1,2.3747404E0,2.2668915E1,1.8910521E2,-1.2919413E0,2.1956415E1,-3.8467362E0,2.7997913E0,5.620755E0,1.0605904E0,-1.0084683E0,-4.2235546E0,4.5340243E-1,-2.0042987E0,6.8382573E0,2.086044E0,8.492608E0,1.3615007E0,5.553757E-1,-2.9900684E0,3.2857451E0,-3.7819455E0,1.3347064E0,-5.693421E-1,-2.0206804E0,-4.6445513E0,-3.9936247E-1,-2.8111305E0,-2.6047566E0,2.0331602E0,3.2669094E0,-1.8668399E0,-1.3919697E0,1.0487558E0,5.108803E-1,-1.8891197E0,-1.7264259E0,-1.8134594E-1,-2.5939734E0,-1.6584959E0,-2.719414E-1,1.2555805E0],"split_indices":[0,3,0,3,3,2,2,3,1,0,2,2,3,0,2,2,3,1,0,0,0,3,1,3,2,2,0,0,0,0,1,3,2,0,0,3,0,2,0,2,2,1,0,2,2,3,2,0,0,2,0,0,3,0,0,0,0,0,0,0,0,0,0,0,0,0,0,0,0,0,0,0,0,0,0,0,0,0,0,0,0,0,0,0,0,0,0,0,0,0,0],"split_type":[0,0,0,0,0,0,0,0,0,0,0,0,0,0,0,0,0,0,0,0,0,0,0,0,0,0,0,0,0,0,0,0,0,0,0,0,0,0,0,0,0,0,0,0,0,0,0,0,0,0,0,0,0,0,0,0,0,0,0,0,0,0,0,0,0,0,0,0,0,0,0,0,0,0,0,0,0,0,0,0,0,0,0,0,0,0,0,0,0,0,0],"sum_hessian":[1.159E3,6.42E2,5.17E2,4.99E2,1.43E2,2.62E2,2.55E2,3.82E2,1.17E2,1.4E1,1.29E2,2.43E2,1.9E1,2E0,2.53E2,3.02E2,8E1,1.14E2,3E0,1.3E1,1E0,1.14E2,1.5E1,2.16E2,2.7E1,1.2E1,7E0,1E0,1E0,2.48E2,5E0,1.3E1,2.89E2,5E0,7.5E1,1.07E2,7E0,5E0,8E0,2.7E1,8.7E1,1.4E1,1E0,1.97E2,1.9E1,1.7E1,1E1,1E1,2E0,4E0,3E0,8.8E1,1.6E2,1E0,4E0,1E1,3E0,1.3E1,2.76E2,1E0,4E0,5.6E1,1.9E1,3E0,1.04E2,6E0,1E0,2E0,3E0,2.5E1,2E0,3.1E1,5.6E1,7E0,7E0,1.87E2,1E1,1.8E1,1E0,1.6E1,1E0,7E0,3E0,2E0,2E0,6.5E1,2.3E1,5.6E1,1.04E2,1E0,3E0],"tree_param":{"num_deleted":"0","num_feature":"5","num_nodes":"91","size_leaf_vector":"1"}},{"base_weights":[-1.1972E-2,1.8128654E0,-3.0913575E0,2.5451572E0,-8.418566E-2,6.777673E-1,-3.6660717E0,3.4937239E0,-4.938928E-1,-9.2725935E0,3.8744646E-1,3.1890767E0,-5.080091E0,-4.3154655E0,-2.2327917E0,2.581848E-1,4.363226E0,-1.4026531E0,1.3085653E1,-1.3998178E1,1.3153267E0,1.2212919E1,7.585062E-2,-4.9790063E0,7.6087866E0,7.43021E-1,-1.0985761E1,-3.4190047E0,-6.1869493E0,9.561373E0,-3.16896E0,-1.1849856E0,2.3874544E1,-1.3347726E0,5.241513E0,1.2156777E-1,-1.055513E1,6.090018E0,-1.7115121E0,-4.7779828E-1,-4.7400966E0,2.335334E0,-2.7138052E0,1.8805476E0,5.3985944E0,7.994325E0,-3.5964715E-1,-1.5339862E0,-3.468675E0,4.251484E0,1.8650764E1,2.6544247E0,-1.1406615E0,-4.886843E0,-3.4848938E0,-2.9117205E0,-8.309864E0,-6.8560557E0,8.574639E0,1.223665E1,-1.7761265E0,-3.524411E0,3.638832E0,3.2038337E-1,-2.7764204E0,8.899239E0,1.07430845E-1,5.0451493E-1,-5.126517E0,7.5432487E0,1.3177146E0,-3.087099E0,4.8229375E-1,-1.315388E0,-4.665852E0,3.5593244E-1,4.3694763E0,-2.2932043E0,1.9048024E-2,-1.6081576E0,3.137088E0,3.163829E0,-2.961911E-2,7.368903E0,-1.6365693E0,-9.64541E-2,-1.1540766E0,1.5619487E0,-2.0878096E0,-1.4479891E0,-1.785549E-1,4.8435917E-1,-2.723738E0,-2.609055E0,-1.28803E0,2.9318314E0,7.470366E-1,1.565283E-1,4.1507006E0,-9.004985E-1,-3.1466322E0,2.1121912E0,-6.3295555E-1],"categories":[],"categories_nodes":[],"categories_segments":[],"categories_sizes":[],"default_left":[0,0,0,0,0,0,0,0,0,0,0,0,0,0,0,0,0,0,0,0,0,0,0,0,0,0,0,0,0,0,0,0,0,0,0,0,0,0,0,0,0,0,0,0,0,0,0,0,0,0,0,0,0,0,0,0,0,0,0,0,0,0,0,0,0,0,0,0,0,0,0,0,0,0,0,0,0,0,0,0,0,0,0,0,0,0,0,0,0,0,0,0,0,0,0,0,0,0,0,0,0,0,0],"id":2,"left_children":[1,3,5,7,9,11,13,15,17,19,21,23,25,27,29,31,33,35,37,39,41,43,45,47,49,51,53,55,57,59,61,63,65,67,69,71,73,-1,-1,-1,-1,-1,-1,-1,-1,75,77,79,-1,81,83,-1,85,-1,87,89,91,93,95,97,-1,99,101,-1,-1,-1,-1,-1,-1,-1,-1,-1,-1,-1,-1,-1,-1,-1,-1,-1,-1,-1,-1,-1,-1,-1,-1,-1,-1,-1,-1,-1,-1,-1,-1,-1,-1,-1,-1,-1,-1,-1,-1],"loss_changes":[6.524082E3,1.01293726E3,9.382705E2,1.5180476E3,8.8763654E2,8.548671E2,3.3940088E2,1.1270103E3,1.5732643E3,5.187532E2,7.1760345E2,1.518007E3,6.271714E2,4.1001855E2,1.344217E3,2.9593801E3,1.5884111E3,1.6613802E3,1.2003219E3,1.3133105E2,3.3853333E2,5.9061584E1,6.6153455E2,3.2245477E2,9.2163074E2,1.6276628E2,3.0127502E2,4.1246997E2,8.6870825E2,4.4520886E2,2.8142664E2,1.500691E3,6.701294E2,2.072124E3,4.5201455E3,1.610251E3,4.5605933E2,0E0,0E0,0E0,0E0,0E0,0E0,0E0,0E0,4.3003796E2,5.61466E2,5.6077686E2,0E0,6.034654E2,9.891201E2,0E0,1.8714607E1,0E0,1.872238E2,7.1131665E2,1.368097E2,3.3532397E2,4.8248596E0,1.4263977E2,0E0,3.5442163E2,1.3219011E2,0E0,0E0,0E0,0E0,0E0,0E0,0E0,0E0,0E0,0E0,0E0,0E0,0E0,0E0,0E0,0E0,0E0,0E0,0E0,0E0,0E0,0E0,0E0,0E0,0E0,0E0,0E0,0E0,0E0,0E0,0E0,0E0,0E0,0E0,0E0,0E0,0E0,0E0,0E0,0E0],"parents":[2147483647,0,0,1,1,2,2,3,3,4,4,5,5,6,6,7,7,8,8,9,9,10,10,11,11,12,12,13,13,14,14,15,15,16,16,17,17,18,18,19,19,20,20,21,21,22,22,23,23,24,24,25,25,26,26,27,27,28,28,29,29,30,30,31,31,32,32,33,33,34,34,35,35,36,36,45,45,46,46,47,47,49,49,50,50,52,52,54,54,55,55,56,56,57,57,58,58,59,59,61,61,62,62],"right_children":[2,4,6,8,10,12,14,16,18,20,22,24,26,28,30,32,34,36,38,40,42,44,46,48,50,52,54,56,58,60,62,64,66,68,70,72,74,-1,-1,-1,-1,-1,-1,-1,-1,76,78,80,-1,82,84,-1,86,-1,88,90,92,94,96,98,-1,100,102,-1,-1,-1,-1,-1,-1,-1,-1,-1,-1,-1,-1,-1,-1,-1,-1,-1,-1,-1,-1,-1,-1,-1,-1,-1,-1,-1,-1,-1,-1,-1,-1,-1,-1,-1,-1,-1,-1,-1,-1],"split_conditions":[1.6646E1,1.0766834E1,1.006196E2,3.0324963E2,1.106475E1,5E-1,2.4696104E1,1.4668335E0,1.13E1,2.450249E1,1.111475E1,1.7906157E1,6.263431E1,2.1599998E1,1.76835E1,3.1E0,4.4127655E1,2.1E0,7.6835003E0,1.8709612E1,2.8227304E1,1E-1,1.3217443E1,1.7313717E1,8.002975E1,1.0514218E1,1.8820997E1,3.242644E2,3.5653415E2,3.3956094E2,3.8329433E1,6.605832E-1,-5.810833E-1,3.7670284E1,5.729813E1,3.057447E2,5.0918336E0,6.090018E0,-1.7115121E0,-4.7779828E-1,-4.7400966E0,2.335334E0,-2.7138052E0,1.8805476E0,5.3985944E0,1.1901798E1,1.5053425E1,1.662249E1,-3.468675E0,1.9493261E1,2.0125166E1,2.6544247E0,2.4700003E1,-4.886843E0,7.3286705E1,2.1820992E2,1.1345712E1,3E-1,1.8458498E1,1.7029333E1,-1.7761265E0,1.5300001E1,4.133734E1,3.2038337E-1,-2.7764204E0,8.899239E0,1.07430845E-1,5.0451493E-1,-5.126517E0,7.5432487E0,1.3177146E0,-3.087099E0,4.8229375E-1,-1.315388E0,-4.665852E0,3.5593244E-1,4.3694763E0,-2.2932043E0,1.9048024E-2,-1.6081576E0,3.137088E0,3.163829E0,-2.961911E-2,7.368903E0,-1.6365693E0,-9.64541E-2,-1.1540766E0,1.5619487E0,-2.0878096E0,-1.4479891E0,-1.785549E-1,4.8435917E-1,-2.723738E0,-2.609055E0,-1.28803E0,2.9318314E0,7.470366E-1,1.565283E-1,4.1507006E0,-9.004985E-1,-3.1466322E0,2.1121912E0,-6.3295555E-1],"split_indices":[0,0,3,3,0,1,2,0,1,2,0,2,3,2,0,1,3,1,0,2,2,1,2,2,3,2,0,3,3,3,2,0,0,3,3,3,0,0,0,0,0,0,0,0,0,2,2,2,0,2,0,0,1,0,3,3,2,1,0,0,0,1,2,0,0,0,0,0,0,0,0,0,0,0,0,0,0,0,0,0,0,0,0,0,0,0,0,0,0,0,0,0,0,0,0,0,0,0,0,0,0,0,0],"split_type":[0,0,0,0,0,0,0,0,0,0,0,0,0,0,0,0,0,0,0,0,0,0,0,0,0,0,0,0,0,0,0,0,0,0,0,0,0,0,0,0,0,0,0,0,0,0,0,0,0,0,0,0,0,0,0,0,0,0,0,0,0,0,0,0,0,0,0,0,0,0,0,0,0,0,0,0,0,0,0,0,0,0,0,0,0,0,0,0,0,0,0,0,0,0,0,0,0,0,0,0,0,0,0],"sum_hessian":[1.159E3,7.28E2,4.31E2,5.25E2,2.03E2,5.7E1,3.74E2,4E2,1.25E2,9E0,1.94E2,4E1,1.7E1,2.56E2,1.18E2,8.5E1,3.15E2,1.18E2,7E0,6E0,3E0,4E0,1.9E2,1.4E1,2.6E1,9E0,8E0,1.75E2,8.1E1,8E0,1.1E2,8.1E1,4E0,4.2E1,2.73E2,1.02E2,1.6E1,5E0,2E0,1E0,5E0,2E0,1E0,3E0,1E0,9E0,1.81E2,1E1,4E0,2.1E1,5E0,1E0,8E0,4E0,4E0,1.6E2,1.5E1,7.8E1,3E0,7E0,1E0,1.05E2,5E0,6.4E1,1.7E1,3E0,1E0,3.6E1,6E0,1E1,2.63E2,1.2E1,9E1,8E0,8E0,5E0,4E0,9E0,1.72E2,8E0,2E0,8E0,1.3E1,4E0,1E0,7E0,1E0,1E0,3E0,8.7E1,7.3E1,1E0,1.4E1,4.4E1,3.4E1,2E0,1E0,1E0,6E0,9.9E1,6E0,3E0,2E0],"tree_param":{"num_deleted":"0","num_feature":"5","num_nodes":"103","size_leaf_vector":"1"}},{"base_weights":[-1.7932695E-4,1.2837057E0,-2.166735E0,1.4896778E0,-3.9261565E0,5.2474695E-1,-2.5772395E0,2.267715E0,1.1693132E-1,-7.36732E0,6.111333E-1,2.401299E0,-3.7787745E0,-4.418694E0,-2.240123E0,2.0216799E0,2.3662104E1,-1.4428492E-1,2.2107191E1,3.1523583E0,-1.243557E1,-3.4519985E0,2.340763E0,-3.3635423E0,6.2253394E0,6.605045E-1,-8.291443E0,-8.118789E-1,-8.687901E0,-2.617421E0,4.5696527E-1,-7.700194E0,2.3561134E0,7.04884E-1,8.520847E0,-2.1010418E0,1.5816289E0,9.100132E0,8.4810394E-1,-1.9098139E0,2.6553407E0,-4.256006E0,-1.7473335E0,-6.531745E0,4.8847427E0,6.5452796E-1,-5.6147194E0,8.228006E0,-1.9036999E0,2.256261E0,-9.374106E-1,-3.7140002E0,-2.544597E0,-4.5680966E0,3.7497075E0,-9.371509E0,-3.2307434E-1,-2.0173497E0,-5.9697924E0,4.7015924E0,-1.7608773E0,-5.0035543E0,-1.2197213E0,1.0947129E0,-2.0670289E-1,2.9513903E0,-8.1329423E-1,-4.017318E0,6.070094E-1,-3.449078E-2,-7.4093175E-1,-2.8931162E0,1.8210166E0,2.6509542E0,-4.5281985E-1,1.8698422E0,-1.5262151E0,-2.3873198E0,9.8576814E-1,1.1919314E0,5.03342E0,-5.5040306E-1,1.9285241E-1,1.3276566E0,-1.6180521E0,-1.6596642E0,1.7732838E0,2.8908985E0,2.1992663E-1,-6.378771E-1,-2.878222E0,-7.08478E-1,5.6309456E-1,-6.588467E-1,2.0369978E0,3.8598692E-1,-2.237351E0,1.8966081E0,-2.454608E0,3.9374533E-1,-1.1867532E0],"categories":[],"categories_nodes":[],"categories_segments":[],"categories_sizes":[],"default_left":[0,0,0,0,0,0,0,0,0,0,0,0,0,0,0,0,0,0,0,0,0,0,0,0,0,0,0,0,0,0,0,0,0,0,0,0,0,0,0,0,0,0,0,0,0,0,0,0,0,0,0,0,0,0,0,0,0,0,0,0,0,0,0,0,0,0,0,0,0,0,0,0,0,0,0,0,0,0,0,0,0,0,0,0,0,0,0,0,0,0,0,0,0,0,0,0,0,0,0,0,0],"id":3,"left_children":[1,3,5,7,9,11,13,15,17,19,21,23,25,27,29,31,33,35,37,39,41,43,-1,45,47,49,51,53,55,57,59,61,63,-1,-1,65,67,-1,-1,69,-1,-1,-1,71,73,75,77,79,-1,-1,81,-1,83,85,87,89,91,93,95,97,99,-1,-1,-1,-1,-1,-1,-1,-1,-1,-1,-1,-1,-1,-1,-1,-1,-1,-1,-1,-1,-1,-1,-1,-1,-1,-1,-1,-1,-1,-1,-1,-1,-1,-1,-1,-1,-1,-1,-1,-1],"loss_changes":[3.2294468E3,7.881288E2,4.7865466E2,7.495043E2,4.4168195E2,4.7746933E2,2.2289575E2,2.310334E3,1.467964E3,8.922631E2,4.067898E2,9.247835E2,3.6607037E2,8.706461E2,3.2581226E2,1.4617289E3,4.3844702E2,8.577532E2,3.9007593E2,1.8999316E2,4.47157E1,2.629813E2,0E0,1.5744658E2,6.8160077E2,1.1667296E2,1.7996472E2,5.65427E2,1.456471E2,5.5122217E2,3.8483554E2,4.216593E2,1.6954797E3,0E0,0E0,8.93236E2,9.199812E2,0E0,0E0,3.736205E0,0E0,0E0,0E0,3.3305347E2,8.914239E1,2.5591858E2,2.5554504E2,7.336918E2,0E0,0E0,1.3940567E1,0E0,1.2315529E2,2.14555E2,2.5930106E2,1.8301514E1,1.7887236E1,3.9129004E2,4.631056E2,3.4400577E2,1.8733197E2,0E0,0E0,0E0,0E0,0E0,0E0,0E0,0E0,0E0,0E0,0E0,0E0,0E0,0E0,0E0,0E0,0E0,0E0,0E0,0E0,0E0,0E0,0E0,0E0,0E0,0E0,0E0,0E0,0E0,0E0,0E0,0E0,0E0,0E0,0E0,0E0,0E0,0E0,0E0,0E0],"parents":[2147483647,0,0,1,1,2,2,3,3,4,4,5,5,6,6,7,7,8,8,9,9,10,10,11,11,12,12,13,13,14,14,15,15,16,16,17,17,18,18,19,19,20,20,21,21,23,23,24,24,25,25,26,26,27,27,28,28,29,29,30,30,31,31,32,32,35,35,36,36,39,39,43,43,44,44,45,45,46,46,47,47,50,50,52,52,53,53,54,54,55,55,56,56,57,57,58,58,59,59,60,60],"right_children":[2,4,6,8,10,12,14,16,18,20,22,24,26,28,30,32,34,36,38,40,42,44,-1,46,48,50,52,54,56,58,60,62,64,-1,-1,66,68,-1,-1,70,-1,-1,-1,72,74,76,78,80,-1,-1,82,-1,84,86,88,90,92,94,96,98,100,-1,-1,-1,-1,-1,-1,-1,-1,-1,-1,-1,-1,-1,-1,-1,-1,-1,-1,-1,-1,-1,-1,-1,-1,-1,-1,-1,-1,-1,-1,-1,-1,-1,-1,-1,-1,-1,-1,-1,-1],"split_conditions":[1.6646E1,3.4533972E2,1.006196E2,9.645999E0,2.5668333E0,5E-1,1.6862455E1,9.341832E0,4.9493126E1,-1.7019168E0,3.5330325E2,1.8089775E1,6.263431E1,1.5696165E1,3.0324963E2,1.4345751E1,2.9681454E0,1.9314867E2,1.02022505E1,-2.2623336E0,3.5653415E2,4.4E0,2.340763E0,1.9018917E1,2.3079332E1,1.0514218E1,1.8820997E1,1.457889E1,1.8100004E1,2.6362375E2,3.2154523E2,1.3896187E1,2.6127295E1,7.04884E-1,8.520847E0,1.1466662E1,9.700166E0,9.100132E0,8.4810394E-1,-3.926917E0,2.6553407E0,-4.256006E0,-1.7473335E0,1.1731418E1,7.6835003E0,1.7313717E1,2.2621E1,7.8842476E1,-1.9036999E0,2.256261E0,4.96107E1,-3.7140002E0,7.3286705E1,7.3999996E0,1.8243917E1,1.0603104E2,2.2856415E1,2.5917328E2,1.9011953E1,2.420225E1,1.8618914E1,-5.0035543E0,-1.2197213E0,1.0947129E0,-2.0670289E-1,2.9513903E0,-8.1329423E-1,-4.017318E0,6.070094E-1,-3.449078E-2,-7.4093175E-1,-2.8931162E0,1.8210166E0,2.6509542E0,-4.5281985E-1,1.8698422E0,-1.5262151E0,-2.3873198E0,9.8576814E-1,1.1919314E0,5.03342E0,-5.5040306E-1,1.9285241E-1,1.3276566E0,-1.6180521E0,-1.6596642E0,1.7732838E0,2.8908985E0,2.1992663E-1,-6.378771E-1,-2.878222E0,-7.08478E-1,5.6309456E-1,-6.588467E-1,2.0369978E0,3.8598692E-1,-2.237351E0,1.8966081E0,-2.454608E0,3.9374533E-1,-1.1867532E0],"split_indices":[0,3,3,0,0,1,2,0,2,0,3,2,3,2,3,3,3,3,0,0,3,1,0,0,0,2,0,2,1,3,3,2,2,0,0,3,0,0,0,0,0,0,0,0,0,2,0,3,0,0,3,0,3,1,0,3,0,3,2,0,0,0,0,0,0,0,0,0,0,0,0,0,0,0,0,0,0,0,0,0,0,0,0,0,0,0,0,0,0,0,0,0,0,0,0,0,0,0,0,0,0],"split_type":[0,0,0,0,0,0,0,0,0,0,0,0,0,0,0,0,0,0,0,0,0,0,0,0,0,0,0,0,0,0,0,0,0,0,0,0,0,0,0,0,0,0,0,0,0,0,0,0,0,0,0,0,0,0,0,0,0,0,0,0,0,0,0,0,0,0,0,0,0,0,0,0,0,0,0,0,0,0,0,0,0,0,0,0,0,0,0,0,0,0,0,0,0,0,0,0,0,0,0,0,0],"sum_hessian":[1.159E3,7.28E2,4.31E2,7.01E2,2.7E1,5.7E1,3.74E2,4.47E2,2.54E2,1.5E1,1.2E1,4E1,1.7E1,5.6E1,3.18E2,4.43E2,4E0,2.52E2,2E0,5E0,1E1,8E0,4E0,1.6E1,2.4E1,9E0,8E0,3.1E1,2.5E1,2.79E2,3.9E1,1.4E1,4.29E2,1E0,3E0,1.18E2,1.34E2,1E0,1E0,3E0,2E0,7E0,3E0,6E0,2E0,6E0,1E1,2.1E1,3E0,1E0,8E0,4E0,4E0,1.7E1,1.4E1,2.3E1,2E0,2.38E2,4.1E1,1.3E1,2.6E1,3E0,1.1E1,3.01E2,1.28E2,5E0,1.13E2,3E0,1.31E2,1E0,2E0,5E0,1E0,1E0,1E0,3E0,3E0,8E0,2E0,1.5E1,6E0,5E0,3E0,1E0,3E0,1.6E1,1E0,4E0,1E1,1E0,2.2E1,1E0,1E0,2.34E2,4E0,7E0,3.4E1,1.2E1,1E0,1.1E1,1.5E1],"tree_param":{"num_deleted":"0","num_feature":"5","num_nodes":"101","size_leaf_vector":"1"}},{"base_weights":[9.191145E-3,9.149318E-1,-1.5192674E0,1.2756943E0,-1.2174337E0,-8.482719E-1,-2.5093167E0,5.8358485E-1,3.0766063E0,-5.521787E0,-5.3809863E-1,-9.980888E-1,5.6353536E0,-9.199939E-1,-3.3377323E0,8.081781E-1,-1.1982365E1,4.0959735E0,-4.496717E0,3.676035E0,-2.4035733E0,-7.431605E-1,-4.299196E0,2.74587E0,-9.331589E-1,3.233667E0,-2.1123116E0,-6.592783E0,-2.5750322E0,-7.4976063E0,1.1758636E0,9.612568E-1,-1.4609613E1,3.4023519E0,1.8076889E1,4.1674633E0,-1.1342141E1,-4.917472E-2,7.1406007E0,-9.50224E0,5.094184E-1,-9.3904793E-1,1.0902046E1,-8.639811E0,3.7560284E0,1.1640759E-1,-5.363291E-1,7.5224843E0,1.5158759E-2,-4.628253E0,3.8748458E-1,-7.5065346E0,1.7523371E0,-3.7868145E0,-4.2411903E-1,-3.7187753E0,1.5544162E0,8.547143E-1,-1.4153369E-1,-5.8776155E0,-4.3070415E-1,1.7012497E0,1.5971576E-1,5.9938397E0,9.992152E-1,-5.956277E-1,2.5800881E0,-3.8413908E0,7.117962E-1,2.0490294E0,-1.6906532E0,-8.7478083E-1,-3.9993143E0,5.890383E0,-7.51733E-2,-1.0726323E-1,-6.8889624E-1,-2.8108979E-2,4.379558E0,-1.3684189E0,-4.0311937E0,5.7829404E-1,2.208948E0,3.4597704E-1,3.1256354E0,-6.6230726E-1,1.5590264E0,1.2536162E0,-1.5578547E0,-1.7781333E0,1.1123137E0,-2.505297E0,1.2807152E0,-6.5359616E-1,-1.8837395E0,1.3106518E0,-1.0364716E0],"categories":[],"categories_nodes":[],"categories_segments":[],"categories_sizes":[],"default_left":[0,0,0,0,0,0,0,0,0,0,0,0,0,0,0,0,0,0,0,0,0,0,0,0,0,0,0,0,0,0,0,0,0,0,0,0,0,0,0,0,0,0,0,0,0,0,0,0,0,0,0,0,0,0,0,0,0,0,0,0,0,0,0,0,0,0,0,0,0,0,0,0,0,0,0,0,0,0,0,0,0,0,0,0,0,0,0,0,0,0,0,0,0,0,0,0,0],"id":4,"left_children":[1,3,5,7,9,11,13,15,17,-1,19,21,23,25,27,29,31,33,35,37,39,41,43,-1,45,47,49,51,53,55,57,-1,59,61,63,65,67,69,-1,71,73,75,77,79,81,-1,-1,83,85,87,89,91,-1,93,95,-1,-1,-1,-1,-1,-1,-1,-1,-1,-1,-1,-1,-1,-1,-1,-1,-1,-1,-1,-1,-1,-1,-1,-1,-1,-1,-1,-1,-1,-1,-1,-1,-1,-1,-1,-1,-1,-1,-1,-1,-1,-1],"loss_changes":[1.6072789E3,5.623565E2,2.8485712E2,7.759756E2,1.227833E3,2.572059E2,2.2602124E2,1.2853308E3,1.3539778E3,0E0,8.185557E2,2.1055762E2,1.4717139E2,3.0893204E2,2.6604285E2,1.3678093E3,3.6600293E2,1.4222085E3,1.2927777E3,2.4003208E3,1.4936824E3,5.5087006E2,6.618146E2,0E0,4.080968E0,1.9313629E2,3.0368176E2,2.824381E2,2.4339911E2,1.2442355E3,1.1785015E3,0E0,4.3134033E2,9.5401904E2,1.29844E2,2.8982233E2,2.7107483E2,1.1145289E3,0E0,4.9069897E2,7.6074365E2,1.8386562E2,1.6395001E2,1.7350146E2,3.1972923E1,0E0,0E0,9.86676E1,1.1513399E2,1.410365E2,5.4612335E2,2.3452979E2,0E0,2.268028E2,5.23519E2,0E0,0E0,0E0,0E0,0E0,0E0,0E0,0E0,0E0,0E0,0E0,0E0,0E0,0E0,0E0,0E0,0E0,0E0,0E0,0E0,0E0,0E0,0E0,0E0,0E0,0E0,0E0,0E0,0E0,0E0,0E0,0E0,0E0,0E0,0E0,0E0,0E0,0E0,0E0,0E0,0E0,0E0],"parents":[2147483647,0,0,1,1,2,2,3,3,4,4,5,5,6,6,7,7,8,8,10,10,11,11,12,12,13,13,14,14,15,15,16,16,17,17,18,18,19,19,20,20,21,21,22,22,24,24,25,25,26,26,27,27,28,28,29,29,30,30,32,32,33,33,34,34,35,35,36,36,37,37,39,39,40,40,41,41,42,42,43,43,44,44,47,47,48,48,49,49,50,50,51,51,53,53,54,54],"right_children":[2,4,6,8,10,12,14,16,18,-1,20,22,24,26,28,30,32,34,36,38,40,42,44,-1,46,48,50,52,54,56,58,-1,60,62,64,66,68,70,-1,72,74,76,78,80,82,-1,-1,84,86,88,90,92,-1,94,96,-1,-1,-1,-1,-1,-1,-1,-1,-1,-1,-1,-1,-1,-1,-1,-1,-1,-1,-1,-1,-1,-1,-1,-1,-1,-1,-1,-1,-1,-1,-1,-1,-1,-1,-1,-1,-1,-1,-1,-1,-1,-1],"split_conditions":[1.6646E1,3.1494186E2,2.2941835E1,2.719431E2,-4.612334E0,2.2856415E1,1E-1,2.706005E2,3.2489872E1,-5.521787E0,1.8089775E1,3.2750107E1,1.8438928E2,2.012461E1,4E-1,-1.3373332E0,-5.7706666E0,4.6E0,2.9748492E2,1.7447933E1,2.0147498E0,3.2048088E1,1.9694604E2,2.74587E0,1E-1,2.4157239E2,2.4881702E1,2.8045998E1,2.5106413E1,1E-1,8.7835E0,9.612568E-1,5E-1,5.646E0,2.8019936E1,2E-1,3.0723315E2,2.0147498E0,7.1406007E0,3.2154523E2,2.1355832E0,2.6084473E2,1.7029333E1,1.8214996E2,4.0340885E1,1.1640759E-1,-5.363291E-1,1.8089775E1,1.9602652E1,2.3812662E1,1.8785635E2,3.552527E1,1.7523371E0,2.4400167E1,2.0613094E2,-3.7187753E0,1.5544162E0,8.547143E-1,-1.4153369E-1,-5.8776155E0,-4.3070415E-1,1.7012497E0,1.5971576E-1,5.9938397E0,9.992152E-1,-5.956277E-1,2.5800881E0,-3.8413908E0,7.117962E-1,2.0490294E0,-1.6906532E0,-8.7478083E-1,-3.9993143E0,5.890383E0,-7.51733E-2,-1.0726323E-1,-6.8889624E-1,-2.8108979E-2,4.379558E0,-1.3684189E0,-4.0311937E0,5.7829404E-1,2.208948E0,3.4597704E-1,3.1256354E0,-6.6230726E-1,1.5590264E0,1.2536162E0,-1.5578547E0,-1.7781333E0,1.1123137E0,-2.505297E0,1.2807152E0,-6.5359616E-1,-1.8837395E0,1.3106518E0,-1.0364716E0],"split_indices":[0,3,0,3,0,0,1,3,2,0,2,2,3,2,1,0,0,1,3,2,0,2,3,0,1,3,2,0,0,1,0,0,1,0,2,1,3,0,0,3,0,3,0,3,2,0,0,2,2,0,3,2,0,0,3,0,0,0,0,0,0,0,0,0,0,0,0,0,0,0,0,0,0,0,0,0,0,0,0,0,0,0,0,0,0,0,0,0,0,0,0,0,0,0,0,0,0],"split_type":[0,0,0,0,0,0,0,0,0,0,0,0,0,0,0,0,0,0,0,0,0,0,0,0,0,0,0,0,0,0,0,0,0,0,0,0,0,0,0,0,0,0,0,0,0,0,0,0,0,0,0,0,0,0,0,0,0,0,0,0,0,0,0,0,0,0,0,0,0,0,0,0,0,0,0,0,0,0,0,0,0,0,0,0,0,0,0,0,0,0,0,0,0,0,0,0,0],"sum_hessian":[1.159E3,7.28E2,4.31E2,6.23E2,1.05E2,2.58E2,1.73E2,4.51E2,1.72E2,3E0,1.02E2,2.53E2,5E0,6E1,1.13E2,4.44E2,7E0,1.52E2,2E1,3.1E1,7.1E1,2.36E2,1.7E1,3E0,2E0,1.3E1,4.7E1,2E1,9.3E1,1.8E1,4.26E2,1E0,6E0,1.46E2,6E0,9E0,1.1E1,2.7E1,4E0,2E1,5.1E1,2.33E2,3E0,1.1E1,6E0,1E0,1E0,5E0,8E0,2.3E1,2.4E1,1.9E1,1E0,5.9E1,3.4E1,1.3E1,5E0,2.11E2,2.15E2,4E0,2E0,8.1E1,6.5E1,5E0,1E0,4E0,5E0,1E1,1E0,1.2E1,1.5E1,8E0,1.2E1,1E0,5E1,1.64E2,6.9E1,1E0,2E0,7E0,4E0,5E0,1E0,2E0,3E0,6E0,2E0,1E0,2.2E1,8E0,1.6E1,1.8E1,1E0,3.7E1,2.2E1,1.3E1,2.1E1],"tree_param":{"num_deleted":"0","num_feature":"5","num_nodes":"97","size_leaf_vector":"1"}},{"base_weights":[1.3985924E-2,6.4570457E-1,-1.0520717E0,2.9635617E-1,2.4892752E0,6.011405E-1,-1.3049629E0,4.1356778E-1,-1.1650013E1,1.5201825E1,5.9537804E-1,-2.8726704E0,2.8038213E0,-3.5708356E0,-1.0237517E0,7.784816E-1,-2.2764637E0,-5.010187E0,-4.9495525E0,3.0038273E1,1.9732729E0,-5.323125E0,4.999086E0,-4.392784E0,2.1664498E0,1.292566E1,3.485981E-1,-2.1879714E0,-1.3089865E1,-8.7252474E-1,-4.4288483E0,3.4211606E-1,4.447137E0,-8.525137E-1,-4.6741476E0,-1.7108396E0,-4.0347233E-1,3.3515945E1,1.3758351E0,-3.4034724E0,5.056159E0,-2.1707577E1,-1.6366726E0,1.1593577E1,1.5768628E0,9.4973946E-1,-6.520658E0,5.618264E0,-3.1581192E0,2.2298877E0,5.0273976E0,2.2205997E0,-6.1194925E0,-3.6432896E0,5.9383883E0,-4.4475083E0,-9.223818E-1,-1.0447993E0,2.279742E0,-5.0430737E0,5.33412E-1,3.0069456E-1,-1.9218037E0,5.25751E0,8.557882E-1,9.2450224E-2,-1.8593948E0,1.1378797E1,1.71736E0,1.9282475E0,-6.814751E-1,-6.9336E0,-1.7814927E0,3.556809E-1,-4.9248095E0,4.0981574E0,-1.4017892E0,-5.0816617E0,8.9914054E-1,-1.3598946E0,1.4473038E0,-9.3150306E-1,-2.9964237E0,-8.6488724E-2,2.304965E0,-2.0434E-2,-1.4007196E0,9.007531E-2,9.133742E-1,1.2976065E0,-7.5887394E-1,-2.2849221E0,-4.7544137E-1,-6.70786E-1,-2.097413E0,3.162959E0,-6.542458E-1,-2.368723E-1,-9.616466E-1,-1.3810356E-1,1.8779749E0,-9.943895E-1,-2.9099011E0],"categories":[],"categories_nodes":[],"categories_segments":[],"categories_sizes":[],"default_left":[0,0,0,0,0,0,0,0,0,0,0,0,0,0,0,0,0,0,0,0,0,0,0,0,0,0,0,0,0,0,0,0,0,0,0,0,0,0,0,0,0,0,0,0,0,0,0,0,0,0,0,0,0,0,0,0,0,0,0,0,0,0,0,0,0,0,0,0,0,0,0,0,0,0,0,0,0,0,0,0,0,0,0,0,0,0,0,0,0,0,0,0,0,0,0,0,0,0,0,0,0,0,0],"id":5,"left_children":[1,3,5,7,9,11,13,15,17,19,21,23,25,27,29,31,33,-1,35,37,39,41,43,45,47,49,51,53,55,57,59,61,63,65,-1,-1,-1,67,-1,-1,69,71,73,75,77,79,81,83,85,87,-1,89,91,93,95,-1,-1,97,99,101,-1,-1,-1,-1,-1,-1,-1,-1,-1,-1,-1,-1,-1,-1,-1,-1,-1,-1,-1,-1,-1,-1,-1,-1,-1,-1,-1,-1,-1,-1,-1,-1,-1,-1,-1,-1,-1,-1,-1,-1,-1,-1,-1],"loss_changes":[7.818795E2,4.687736E2,1.813963E2,8.6457336E2,2.7837957E3,4.518528E2,2.352901E2,5.995847E2,1.2038788E2,2.8846973E3,2.6850732E3,1.856976E2,8.901437E2,5.1106433E2,1.6864148E2,8.581483E2,1.3696493E3,0E0,3.191002E0,4.658921E2,4.2688757E2,2.6220938E3,1.31322E3,2.108208E2,1.280197E2,2.4955981E2,3.7683722E2,4.592135E2,4.1309326E1,1.772457E2,6.234076E1,2.149328E3,1.1386194E3,4.1760376E2,0E0,0E0,0E0,5.187964E2,0E0,0E0,9.499074E1,3.9927734E1,1.5627855E3,7.362583E2,1.1026633E3,1.4932898E2,1.2295233E2,5.1002106E1,1.3688473E1,3.8020449E0,0E0,2.5089243E2,3.544577E1,1.3514786E2,2.4731717E2,0E0,0E0,1.662164E2,1.8828412E2,7.248169E1,0E0,0E0,0E0,0E0,0E0,0E0,0E0,0E0,0E0,0E0,0E0,0E0,0E0,0E0,0E0,0E0,0E0,0E0,0E0,0E0,0E0,0E0,0E0,0E0,0E0,0E0,0E0,0E0,0E0,0E0,0E0,0E0,0E0,0E0,0E0,0E0,0E0,0E0,0E0,0E0,0E0,0E0,0E0],"parents":[2147483647,0,0,1,1,2,2,3,3,4,4,5,5,6,6,7,7,8,8,9,9,10,10,11,11,12,12,13,13,14,14,15,15,16,16,18,18,19,19,20,20,21,21,22,22,23,23,24,24,25,25,26,26,27,27,28,28,29,29,30,30,31,31,32,32,33,33,37,37,40,40,41,41,42,42,43,43,44,44,45,45,46,46,47,47,48,48,49,49,51,51,52,52,53,53,54,54,57,57,58,58,59,59],"right_children":[2,4,6,8,10,12,14,16,18,20,22,24,26,28,30,32,34,-1,36,38,40,42,44,46,48,50,52,54,56,58,60,62,64,66,-1,-1,-1,68,-1,-1,70,72,74,76,78,80,82,84,86,88,-1,90,92,94,96,-1,-1,98,100,102,-1,-1,-1,-1,-1,-1,-1,-1,-1,-1,-1,-1,-1,-1,-1,-1,-1,-1,-1,-1,-1,-1,-1,-1,-1,-1,-1,-1,-1,-1,-1,-1,-1,-1,-1,-1,-1,-1,-1,-1,-1,-1,-1],"split_conditions":[1.6646E1,6.8999996E0,1.006196E2,6.299999E0,8.4E0,1.91835E1,1.4437785E2,3.2094818E2,6.973083E0,1.0730493E2,1.108835E2,7.8842476E1,2.0125166E1,1.4082726E2,1.9900003E1,2.6999998E0,2.2E0,-5.010187E0,2.3966375E1,8.206416E0,6.9999995E0,9.699999E0,7.6835003E0,1.7339897E1,1E-1,2.3683289E1,7.3286705E1,5.299999E0,2.0125166E1,1.2200001E1,2.387949E2,1.2E0,1.4113652E1,1.2073081E1,-4.6741476E0,-1.7108396E0,-4.0347233E-1,8E0,1.3758351E0,-3.4034724E0,2.8019936E1,8.943915E0,8.470098E1,4.5107872E1,8.0251665E0,1.6363178E1,6.263431E1,1.76835E1,1.7787668E1,1.9400166E1,5.0273976E0,2.273707E1,7E-1,2.3587555E1,1.0599999E1,-4.4475083E0,-9.223818E-1,5.6E0,2.0214343E2,2.2752467E2,5.33412E-1,3.0069456E-1,-1.9218037E0,5.25751E0,8.557882E-1,9.2450224E-2,-1.8593948E0,1.1378797E1,1.71736E0,1.9282475E0,-6.814751E-1,-6.9336E0,-1.7814927E0,3.556809E-1,-4.9248095E0,4.0981574E0,-1.4017892E0,-5.0816617E0,8.9914054E-1,-1.3598946E0,1.4473038E0,-9.3150306E-1,-2.9964237E0,-8.6488724E-2,2.304965E0,-2.0434E-2,-1.4007196E0,9.007531E-2,9.133742E-1,1.2976065E0,-7.5887394E-1,-2.2849221E0,-4.7544137E-1,-6.70786E-1,-2.097413E0,3.162959E0,-6.542458E-1,-2.368723E-1,-9.616466E-1,-1.3810356E-1,1.8779749E0,-9.943895E-1,-2.9099011E0],"split_indices":[0,1,3,1,1,0,3,3,0,3,3,3,0,3,1,1,1,0,2,0,1,1,0,2,1,3,3,1,0,1,3,1,2,0,0,0,0,1,0,0,2,0,3,2,0,2,3,0,0,0,0,2,1,2,1,0,0,1,3,3,0,0,0,0,0,0,0,0,0,0,0,0,0,0,0,0,0,0,0,0,0,0,0,0,0,0,0,0,0,0,0,0,0,0,0,0,0,0,0,0,0,0,0],"split_type":[0,0,0,0,0,0,0,0,0,0,0,0,0,0,0,0,0,0,0,0,0,0,0,0,0,0,0,0,0,0,0,0,0,0,0,0,0,0,0,0,0,0,0,0,0,0,0,0,0,0,0,0,0,0,0,0,0,0,0,0,0,0,0,0,0,0,0,0,0,0,0,0,0,0,0,0,0,0,0,0,0,0,0,0,0,0,0,0,0,0,0,0,0,0,0,0,0,0,0,0,0,0,0],"sum_hessian":[1.159E3,7.28E2,4.31E2,6.13E2,1.15E2,5.7E1,3.74E2,6.08E2,5E0,1.4E1,1.01E2,2.2E1,3.5E1,4E1,3.34E2,5.36E2,7.2E1,2E0,3E0,6E0,8E0,4.3E1,5.8E1,1.7E1,5E0,6E0,2.9E1,3.6E1,4E0,3.21E2,1.3E1,4.8E2,5.6E1,6.6E1,6E0,2E0,1E0,5E0,1E0,1E0,7E0,7E0,3.6E1,1.9E1,3.9E1,5E0,1.2E1,3E0,2E0,2E0,4E0,2.3E1,6E0,3.1E1,5E0,3E0,1E0,3.05E2,1.6E1,1.2E1,1E0,4.38E2,4.2E1,5E0,5.1E1,5.5E1,1.1E1,4E0,1E0,6E0,1E0,6E0,1E0,3.1E1,5E0,1.7E1,2E0,2E0,3.7E1,2E0,3E0,7E0,5E0,1E0,2E0,1E0,1E0,1E0,1E0,1.6E1,7E0,4E0,2E0,2.3E1,8E0,3E0,2E0,2.74E2,3.1E1,1E1,6E0,1E1,2E0],"tree_param":{"num_deleted":"0","num_feature":"5","num_nodes":"103","size_leaf_vector":"1"}},{"base_weights":[-6.7793387E-3,2.3825799E-1,-1.3966935E0,4.3680382E-1,-1.5077659E0,-3.0307665E-1,-1.9696227E0,2.922434E-1,9.430305E0,-4.7833734E0,8.102887E-1,2.5763328E0,-1.1365904E0,-2.24804E0,2.6073346E0,-1.2621872E-2,2.4777038E0,1.5361541E1,-4.3182282E0,-1.1378078E1,6.367417E-1,-4.742801E0,3.7054038E0,3.178211E-1,5.534712E0,-1.9476528E-1,-4.696049E0,-1.7500459E0,-6.9533787E0,7.158965E0,-2.5961294E0,3.601871E-1,-3.7352057E0,4.352598E0,-3.846054E0,-1.3387184E0,1.8060022E1,1.2030041E0,-7.402792E0,-5.7366886E0,-8.038134E0,9.652971E0,-3.6436453E0,7.5705924E0,-8.0854E0,7.0067163E0,-4.5815516E0,1.5685496E0,-1.4532012E0,2.2950318E0,2.5644884E0,-3.0365663E0,1.9141643E0,-3.1072307E0,-2.2102647E0,-2.5816083E0,2.4860121E-1,4.671215E-1,-8.071993E0,2.5227761E0,5.1121503E-1,5.117626E-1,-1.379627E0,3.406174E-2,3.7260635E0,5.407875E0,-1.3921021E0,9.5865035E-1,5.600829E0,-2.689053E0,4.7017545E-1,1.15833096E-1,6.0662994E0,-3.5946531E0,9.5030427E-1,-3.4701846E0,-7.05706E-1,3.5647368E0,-8.930134E-1,-2.207174E0,4.3614352E-1,7.28331E0,-3.4980135E0,-3.7838748E0,-4.2459884E-1,4.7244296E0,-6.6053385E-1,-5.413887E-1,-2.905272E0,-2.5546303E-1,1.2604586E0,-4.0320113E-1,1.2945962E0,-1.1382537E0,1.3627859E0,-7.255943E-1,2.0582235E0,-1.416235E0,3.4668544E-1,-4.394156E-1,-1.3600264E0,-1.1191676E0,4.1964933E-1,-3.579775E-1,-2.634803E0],"categories":[],"categories_nodes":[],"categories_segments":[],"categories_sizes":[],"default_left":[0,0,0,0,0,0,0,0,0,0,0,0,0,0,0,0,0,0,0,0,0,0,0,0,0,0,0,0,0,0,0,0,0,0,0,0,0,0,0,0,0,0,0,0,0,0,0,0,0,0,0,0,0,0,0,0,0,0,0,0,0,0,0,0,0,0,0,0,0,0,0,0,0,0,0,0,0,0,0,0,0,0,0,0,0,0,0,0,0,0,0,0,0,0,0,0,0,0,0,0,0,0,0,0,0],"id":6,"left_children":[1,3,5,7,9,11,13,15,17,19,21,23,25,27,29,31,33,35,37,39,41,43,45,47,49,51,53,55,57,59,61,63,65,67,69,-1,71,-1,73,-1,75,77,79,81,83,85,87,89,-1,-1,91,93,95,97,-1,99,101,-1,103,-1,-1,-1,-1,-1,-1,-1,-1,-1,-1,-1,-1,-1,-1,-1,-1,-1,-1,-1,-1,-1,-1,-1,-1,-1,-1,-1,-1,-1,-1,-1,-1,-1,-1,-1,-1,-1,-1,-1,-1,-1,-1,-1,-1,-1,-1],"loss_changes":[3.9540656E2,3.4281772E2,1.08425354E2,1.1504368E3,7.707726E2,1.493299E2,1.5113211E2,5.823521E2,1.2079757E3,1.5084951E3,9.821841E2,9.178243E1,1.5999997E2,2.409002E2,1.8437532E2,1.0671857E3,1.2853729E3,6.1553613E2,1.5813026E2,3.3773242E2,9.6140283E2,9.2554443E2,1.1264147E3,6.570243E1,1.8080536E1,2.3954565E2,1.9552597E1,1.6517978E2,1.0776773E2,1.2951065E1,4.2306145E1,2.0778215E3,1.4624412E3,1.3153169E3,7.066068E2,0E0,3.3592847E2,0E0,2.3158072E2,0E0,2.7377917E2,2.6063208E2,3.325047E2,1.8895205E3,4.9552893E2,2.369028E3,1.5256078E2,5.4554214E1,0E0,0E0,3.3172256E1,1.1485103E2,5.0954358E2,6.048207E1,0E0,1.4595694E2,1.4252686E2,0E0,3.3517456E1,0E0,0E0,0E0,0E0,0E0,0E0,0E0,0E0,0E0,0E0,0E0,0E0,0E0,0E0,0E0,0E0,0E0,0E0,0E0,0E0,0E0,0E0,0E0,0E0,0E0,0E0,0E0,0E0,0E0,0E0,0E0,0E0,0E0,0E0,0E0,0E0,0E0,0E0,0E0,0E0,0E0,0E0,0E0,0E0,0E0,0E0],"parents":[2147483647,0,0,1,1,2,2,3,3,4,4,5,5,6,6,7,7,8,8,9,9,10,10,11,11,12,12,13,13,14,14,15,15,16,16,17,17,18,18,19,19,20,20,21,21,22,22,23,23,24,24,25,25,26,26,27,27,28,28,29,29,30,30,31,31,32,32,33,33,34,34,36,36,38,38,40,40,41,41,42,42,43,43,44,44,45,45,46,46,47,47,50,50,51,51,52,52,53,53,55,55,56,56,58,58],"right_children":[2,4,6,8,10,12,14,16,18,20,22,24,26,28,30,32,34,36,38,40,42,44,46,48,50,52,54,56,58,60,62,64,66,68,70,-1,72,-1,74,-1,76,78,80,82,84,86,88,90,-1,-1,92,94,96,98,-1,100,102,-1,104,-1,-1,-1,-1,-1,-1,-1,-1,-1,-1,-1,-1,-1,-1,-1,-1,-1,-1,-1,-1,-1,-1,-1,-1,-1,-1,-1,-1,-1,-1,-1,-1,-1,-1,-1,-1,-1,-1,-1,-1,-1,-1,-1,-1,-1,-1],"split_conditions":[2.2941835E1,3.2750107E1,1E-1,3.2048088E1,1.7E0,2.012461E1,2.8045998E1,2.744749E1,3.0242102E2,2.4885121E2,9.28993E1,1.9353138E1,2.681475E1,2.6985579E1,2.3000002E0,2.6127295E1,3.0652895E1,3.350002E-2,1E-1,5.646E0,2.7526877E2,5.81475E0,2.8641364E2,1.9161337E1,1.9493261E1,1.8785635E2,2.2450185E2,2.5106413E1,1.2682018E1,7E-1,2.833975E1,2.5862436E1,1.1466662E1,3.0430117E1,2.2882744E2,-1.3387184E0,4.96107E1,1.2030041E0,7.6835003E0,-5.7366886E0,3.42E1,3E-1,2.9855833E0,2.1800001E1,1.0248082E1,1.02022505E1,1.9000004E1,2.4485582E1,-1.4532012E0,2.2950318E0,2.40335E1,2.6441833E1,2.4881702E1,2.1881856E2,-2.2102647E0,2.4400167E1,4E-1,4.671215E-1,2E-1,2.5227761E0,5.1121503E-1,5.117626E-1,-1.379627E0,3.406174E-2,3.7260635E0,5.407875E0,-1.3921021E0,9.5865035E-1,5.600829E0,-2.689053E0,4.7017545E-1,1.15833096E-1,6.0662994E0,-3.5946531E0,9.5030427E-1,-3.4701846E0,-7.05706E-1,3.5647368E0,-8.930134E-1,-2.207174E0,4.3614352E-1,7.28331E0,-3.4980135E0,-3.7838748E0,-4.2459884E-1,4.7244296E0,-6.6053385E-1,-5.413887E-1,-2.905272E0,-2.5546303E-1,1.2604586E0,-4.0320113E-1,1.2945962E0,-1.1382537E0,1.3627859E0,-7.255943E-1,2.0582235E0,-1.416235E0,3.4668544E-1,-4.394156E-1,-1.3600264E0,-1.1191676E0,4.1964933E-1,-3.579775E-1,-2.634803E0],"split_indices":[0,2,1,2,1,2,0,2,3,3,3,2,0,0,1,2,2,0,1,0,3,0,3,2,2,3,3,0,2,1,0,2,3,2,3,0,3,0,0,0,2,1,0,1,0,0,1,0,0,0,0,0,2,3,0,0,1,0,1,0,0,0,0,0,0,0,0,0,0,0,0,0,0,0,0,0,0,0,0,0,0,0,0,0,0,0,0,0,0,0,0,0,0,0,0,0,0,0,0,0,0,0,0,0,0],"split_type":[0,0,0,0,0,0,0,0,0,0,0,0,0,0,0,0,0,0,0,0,0,0,0,0,0,0,0,0,0,0,0,0,0,0,0,0,0,0,0,0,0,0,0,0,0,0,0,0,0,0,0,0,0,0,0,0,0,0,0,0,0,0,0,0,0,0,0,0,0,0,0,0,0,0,0,0,0,0,0,0,0,0,0,0,0,0,0,0,0,0,0,0,0,0,0,0,0,0,0,0,0,0,0,0,0],"sum_hessian":[1.159E3,9.86E2,1.73E2,8.86E2,1E2,6E1,1.13E2,8.73E2,1.3E1,4.1E1,5.9E1,1.3E1,4.7E1,1.07E2,6E0,7.67E2,1.06E2,9E0,4E0,1.8E1,2.3E1,2E1,3.9E1,8E0,5E0,3.8E1,9E0,9.8E1,9E0,3E0,3E0,6.98E2,6.9E1,8.2E1,2.4E1,1E0,8E0,1E0,3E0,4E0,1.4E1,7E0,1.6E1,4E0,1.6E1,2.8E1,1.1E1,7E0,1E0,2E0,3E0,1.6E1,2.2E1,7E0,2E0,6.9E1,2.9E1,1E0,8E0,2E0,1E0,1E0,2E0,6.85E2,1.3E1,2E0,6.7E1,7.7E1,5E0,1.2E1,1.2E1,1E0,7E0,2E0,1E0,8E0,6E0,6E0,1E0,9E0,7E0,2E0,2E0,9E0,7E0,1.4E1,1.4E1,8E0,3E0,4E0,3E0,1E0,2E0,1.5E1,1E0,1.2E1,1E1,5E0,2E0,4.5E1,2.4E1,6E0,2.3E1,1E0,7E0],"tree_param":{"num_deleted":"0","num_feature":"5","num_nodes":"105","size_leaf_vector":"1"}},{"base_weights":[-5.57592E-4,1.1954838E0,-2.0290844E-1,7.289713E0,-1.28418E-1,-5.6701636E0,9.299072E-2,4.8428383E0,8.309192E0,-4.962755E0,2.729695E0,-1.2533476E1,-3.469416E0,-2.3748028E0,3.1826553E-1,-3.4704387E0,1.1294699E1,-1.1975536E1,-1.51331E0,1.3366246E1,-5.341651E-3,-4.0175285E0,-4.8867774E0,1.9094222E0,-3.884772E0,-7.7186227E-1,-1.2213721E1,2.10401E0,-3.7877166E-1,-7.162003E0,2.0300534E0,1.6681694E1,-4.6390852E-1,-1.6417212E1,-7.224642E0,5.20775E0,-5.538594E0,2.439279E1,-3.466032E0,-9.392369E-1,3.7529771E0,-1.0069318E1,3.0284445E0,-4.754839E0,-8.860939E-1,-1.7149334E0,1.4981777E1,6.9175875E-1,-1.3896266E1,1.5081497E0,1.1060542E1,-5.562936E0,-6.07297E-2,-2.5491962E0,3.2778227E-1,1.3776847E0,-1.6171635E0,6.359889E0,-7.298035E-1,-1.4756318E0,1.689164E0,-1.8476269E0,-5.6430717E0,2.2419825E0,-4.377408E0,4.367725E0,-1.0876905E0,-9.2616135E-1,-4.923268E0,2.4448454E0,8.839603E0,-3.3308208E0,2.083907E0,-7.158072E-1,1.5762103E0,-6.932808E-1,-3.56554E0,-3.9023897E-1,-1.724854E0,6.1852265E-2,-1.6074761E0,3.582759E-1,-1.7117301E0,1.1067193E0,5.254898E0,-4.926894E0,-7.5788194E-1,1.9980829E0,2.0035982E-1,7.6701074E0,-1.4485521E0,-5.934309E0,-9.502551E-1,-4.4284962E-2,5.079423E0],"categories":[],"categories_nodes":[],"categories_segments":[],"categories_sizes":[],"default_left":[0,0,0,0,0,0,0,0,0,0,0,0,0,0,0,0,0,0,0,0,0,0,0,0,0,0,0,0,0,0,0,0,0,0,0,0,0,0,0,0,0,0,0,0,0,0,0,0,0,0,0,0,0,0,0,0,0,0,0,0,0,0,0,0,0,0,0,0,0,0,0,0,0,0,0,0,0,0,0,0,0,0,0,0,0,0,0,0,0,0,0,0,0,0,0],"id":7,"left_children":[1,3,5,7,9,11,13,15,-1,17,19,21,23,25,27,29,31,33,35,37,39,41,-1,-1,43,45,47,49,51,53,55,57,59,61,63,65,67,69,71,73,-1,75,-1,77,79,81,83,-1,85,87,89,91,93,-1,-1,-1,-1,-1,-1,-1,-1,-1,-1,-1,-1,-1,-1,-1,-1,-1,-1,-1,-1,-1,-1,-1,-1,-1,-1,-1,-1,-1,-1,-1,-1,-1,-1,-1,-1,-1,-1,-1,-1,-1,-1],"loss_changes":[2.8098578E2,1.3563871E3,1.6069592E3,1.3639108E3,1.9341213E3,7.2684155E2,5.2499945E2,1.5410085E3,0E0,1.2397681E3,2.5601106E3,3.1836597E2,1.8811273E2,1.2364978E3,1.0774888E3,2.7850974E2,1.0212357E3,2.4012427E2,1.0027938E3,3.42538E3,8.4159393E2,5.286725E2,0E0,0E0,9.7539795E1,1.0508121E3,3.0077124E2,1.2801714E3,1.0268533E3,9.7464386E1,1.3883452E2,1.0015044E3,1.905952E2,8.054248E1,1.1917992E3,1.2092408E3,5.623375E2,6.662173E2,7.1325415E2,6.128794E2,0E0,2.8885376E1,0E0,9.5590454E1,4.9952705E1,7.730793E2,4.9868896E1,0E0,2.4579822E2,9.869496E2,3.5808635E3,1.1634417E3,8.706185E2,0E0,0E0,0E0,0E0,0E0,0E0,0E0,0E0,0E0,0E0,0E0,0E0,0E0,0E0,0E0,0E0,0E0,0E0,0E0,0E0,0E0,0E0,0E0,0E0,0E0,0E0,0E0,0E0,0E0,0E0,0E0,0E0,0E0,0E0,0E0,0E0,0E0,0E0,0E0,0E0,0E0,0E0],"parents":[2147483647,0,0,1,1,2,2,3,3,4,4,5,5,6,6,7,7,9,9,10,10,11,11,12,12,13,13,14,14,15,15,16,16,17,17,18,18,19,19,20,20,21,21,24,24,25,25,26,26,27,27,28,28,29,29,30,30,31,31,32,32,33,33,34,34,35,35,36,36,37,37,38,38,39,39,41,41,43,43,44,44,45,45,46,46,48,48,49,49,50,50,51,51,52,52],"right_children":[2,4,6,8,10,12,14,16,-1,18,20,22,24,26,28,30,32,34,36,38,40,42,-1,-1,44,46,48,50,52,54,56,58,60,62,64,66,68,70,72,74,-1,76,-1,78,80,82,84,-1,86,88,90,92,94,-1,-1,-1,-1,-1,-1,-1,-1,-1,-1,-1,-1,-1,-1,-1,-1,-1,-1,-1,-1,-1,-1,-1,-1,-1,-1,-1,-1,-1,-1,-1,-1,-1,-1,-1,-1,-1,-1,-1,-1,-1,-1],"split_conditions":[1.5827721E1,4.7099996E-1,1.6746773E1,2.6999998E0,7.518917E0,6.9168324E0,9.7516656E-1,2.65758E2,8.309192E0,7.095826E1,9.645999E0,-8.685836E-1,8.323083E0,4.7099996E-1,8.460583E0,-1.0644166E0,3.3956094E2,5.0918336E0,2.5668333E0,1E-1,7.3999996E0,-1.5498332E0,-4.8867774E0,1.9094222E0,9.599999E0,4.126667E-1,1.9975282E2,8.1814165E0,9.341832E0,1.5053425E1,2.2308327E-1,1.4044615E1,-2.6644166E0,6.791316E0,5.5626664E0,2.6084473E2,1.4689588E1,8.112666E0,2.6E0,1.5489416E1,3.7529771E0,1.6071491E1,3.0284445E0,1.0603104E2,2.4543917E1,2.4363249E1,2.012461E1,6.9175875E-1,3.359228E2,1.9011953E1,2.5982424E1,1.8875126E1,4.9493126E1,-2.5491962E0,3.2778227E-1,1.3776847E0,-1.6171635E0,6.359889E0,-7.298035E-1,-1.4756318E0,1.689164E0,-1.8476269E0,-5.6430717E0,2.2419825E0,-4.377408E0,4.367725E0,-1.0876905E0,-9.2616135E-1,-4.923268E0,2.4448454E0,8.839603E0,-3.3308208E0,2.083907E0,-7.158072E-1,1.5762103E0,-6.932808E-1,-3.56554E0,-3.9023897E-1,-1.724854E0,6.1852265E-2,-1.6074761E0,3.582759E-1,-1.7117301E0,1.1067193E0,5.254898E0,-4.926894E0,-7.5788194E-1,1.9980829E0,2.0035982E-1,7.6701074E0,-1.4485521E0,-5.934309E0,-9.502551E-1,-4.4284962E-2,5.079423E0],"split_indices":[2,0,2,1,0,0,0,3,0,3,0,0,0,0,0,0,3,0,0,1,1,0,0,0,1,0,3,0,0,2,0,2,0,3,0,3,2,0,1,2,0,2,0,3,0,2,2,0,3,2,2,2,2,0,0,0,0,0,0,0,0,0,0,0,0,0,0,0,0,0,0,0,0,0,0,0,0,0,0,0,0,0,0,0,0,0,0,0,0,0,0,0,0,0,0],"split_type":[0,0,0,0,0,0,0,0,0,0,0,0,0,0,0,0,0,0,0,0,0,0,0,0,0,0,0,0,0,0,0,0,0,0,0,0,0,0,0,0,0,0,0,0,0,0,0,0,0,0,0,0,0,0,0,0,0,0,0,0,0,0,0,0,0,0,0,0,0,0,0,0,0,0,0,0,0,0,0,0,0,0,0,0,0,0,0,0,0,0,0,0,0,0,0],"sum_hessian":[1.159E3,1.67E2,9.92E2,2.9E1,1.38E2,5E1,9.42E2,2.7E1,2E0,5.1E1,8.7E1,1.1E1,3.9E1,7.8E1,8.64E2,1.2E1,1.5E1,1.6E1,3.5E1,1.7E1,7E1,4E0,7E0,1E0,3.8E1,6.8E1,1E1,2.42E2,6.22E2,7E0,5E0,1E1,5E0,7E0,9E0,1.3E1,2.2E1,1E1,7E0,6.6E1,4E0,3E0,1E0,2.9E1,9E0,6.5E1,3E0,1E0,9E0,2.28E2,1.4E1,3.5E1,5.87E2,6E0,1E0,4E0,1E0,8E0,2E0,3E0,2E0,2E0,5E0,3E0,6E0,6E0,7E0,1.9E1,3E0,3E0,7E0,4E0,3E0,5.4E1,1.2E1,1E0,2E0,7E0,2.2E1,8E0,1E0,3.8E1,2.7E1,1E0,2E0,7E0,2E0,3.1E1,1.97E2,7E0,7E0,4E0,3.1E1,5.85E2,2E0],"tree_param":{"num_deleted":"0","num_feature":"5","num_nodes":"95","size_leaf_vector":"1"}},{"base_weights":[1.0700007E-2,-4.640299E0,5.5178516E-2,-9.709797E0,1.2025827E0,1.8129718E0,-1.287511E-1,-3.0348063E0,-4.6119556E0,1.4665463E0,-1.8624916E0,4.2945185E-1,8.343884E0,-2.1233468E0,6.204404E-2,-1.5870626E0,5.5970997E-1,1.4605351E-1,-8.423657E-1,1.4784349E0,-6.599556E0,1.3141969E1,-4.242291E0,-1.4789124E0,-3.8735516E0,8.278885E0,-2.5156869E-2,4.2763183E-1,9.720589E0,-8.5985985E0,-2.0811775E0,2.0990686E1,4.6315937E0,-5.229438E0,1.040165E-1,-8.628379E0,-5.433536E-1,1.03253765E1,1.5503349E0,-1.07636E1,4.3559358E-2,4.3489736E-1,-3.3168793E0,-3.7679875E-1,4.6254644E0,-2.7727213E0,-6.13793E-1,3.201237E-1,-1.3607124E0,5.5103934E-1,7.163061E0,2.0875447E0,-1.7484943E0,-1.909533E0,-7.051861E-1,-3.7039428E0,-1.2275705E0,5.760039E-1,-1.1363133E0,-3.2035453E0,1.3241243E0,-3.614647E0,-6.506241E-1,9.6309483E-1,-5.877051E-2],"categories":[],"categories_nodes":[],"categories_segments":[],"categories_sizes":[],"default_left":[0,0,0,0,0,0,0,0,0,0,0,0,0,0,0,0,0,0,0,0,0,0,0,0,0,0,0,0,0,0,0,0,0,0,0,0,0,0,0,0,0,0,0,0,0,0,0,0,0,0,0,0,0,0,0,0,0,0,0,0,0,0,0,0,0],"id":8,"left_children":[1,3,5,7,9,11,13,15,-1,-1,17,19,21,23,25,-1,-1,-1,-1,27,29,31,33,35,-1,37,39,41,43,45,47,49,51,53,-1,55,57,-1,59,61,63,-1,-1,-1,-1,-1,-1,-1,-1,-1,-1,-1,-1,-1,-1,-1,-1,-1,-1,-1,-1,-1,-1,-1,-1],"loss_changes":[2.4022466E2,3.3750214E2,3.720402E2,1.801637E2,7.68902E1,9.8130255E2,3.9667438E2,5.4080383E1,0E0,0E0,1.0251198E1,6.807282E2,1.203153E3,6.1357983E2,6.8233154E2,0E0,0E0,0E0,0E0,6.8871356E2,9.049396E1,8.37917E2,2.8993332E1,5.772326E2,0E0,1.7054187E3,6.963136E2,8.6108026E2,5.8222925E2,1.4839172E1,4.347742E1,3.4311426E2,2.3526855E2,1.3849945E0,0E0,1.18150024E2,6.306517E2,0E0,3.6227756E2,4.014685E1,7.1192816E2,0E0,0E0,0E0,0E0,0E0,0E0,0E0,0E0,0E0,0E0,0E0,0E0,0E0,0E0,0E0,0E0,0E0,0E0,0E0,0E0,0E0,0E0,0E0,0E0],"parents":[2147483647,0,0,1,1,2,2,3,3,4,4,5,5,6,6,7,7,10,10,11,11,12,12,13,13,14,14,19,19,20,20,21,21,22,22,23,23,25,25,26,26,27,27,28,28,29,29,30,30,31,31,32,32,33,33,35,35,36,36,38,38,39,39,40,40],"right_children":[2,4,6,8,10,12,14,16,-1,-1,18,20,22,24,26,-1,-1,-1,-1,28,30,32,34,36,-1,38,40,42,44,46,48,50,52,54,-1,56,58,-1,60,62,64,-1,-1,-1,-1,-1,-1,-1,-1,-1,-1,-1,-1,-1,-1,-1,-1,-1,-1,-1,-1,-1,-1,-1,-1],"split_conditions":[5.584381E0,6.4376664E0,5.729813E1,1.7238699E1,9.645999E0,4.8429253E1,1.01653786E2,5.2855835E0,-4.6119556E0,1.4665463E0,1.6031416E1,3.005515E1,2.1800001E1,3.4651752E1,1.0730493E2,-1.5870626E0,5.5970997E-1,1.4605351E-1,-8.423657E-1,2.6807312E1,1.3883499E1,8.206416E0,1.8243917E1,1.3708391E1,-3.8735516E0,4.0085E0,1.108835E2,4.1987103E1,1.3000001E0,2.35E1,1.4679333E1,1.0514218E1,5.1461037E1,9.027249E0,1.040165E-1,7.095826E1,8.470098E1,1.03253765E1,1.0914749E1,8.9E0,1.4044615E1,4.3489736E-1,-3.3168793E0,-3.7679875E-1,4.6254644E0,-2.7727213E0,-6.13793E-1,3.201237E-1,-1.3607124E0,5.5103934E-1,7.163061E0,2.0875447E0,-1.7484943E0,-1.909533E0,-7.051861E-1,-3.7039428E0,-1.2275705E0,5.760039E-1,-1.1363133E0,-3.2035453E0,1.3241243E0,-3.614647E0,-6.506241E-1,9.6309483E-1,-5.877051E-2],"split_indices":[3,0,3,2,0,3,3,0,0,0,0,2,1,2,3,0,0,0,0,2,0,0,0,2,0,0,3,3,1,1,0,2,3,0,0,3,3,0,0,1,2,0,0,0,0,0,0,0,0,0,0,0,0,0,0,0,0,0,0,0,0,0,0,0,0],"split_type":[0,0,0,0,0,0,0,0,0,0,0,0,0,0,0,0,0,0,0,0,0,0,0,0,0,0,0,0,0,0,0,0,0,0,0,0,0,0,0,0,0,0,0,0,0,0,0,0,0,0,0,0,0,0,0,0,0,0,0,0,0,0,0,0,0],"sum_hessian":[1.159E3,1E1,1.149E3,5E0,5E0,1.08E2,1.041E3,3E0,2E0,2E0,3E0,9E1,1.8E1,9E1,9.51E2,2E0,1E0,1E0,2E0,7.9E1,1.1E1,1.3E1,5E0,8.6E1,4E0,9E0,9.42E2,7.1E1,8E0,7E0,4E0,6E0,7E0,4E0,1E0,9E0,7.7E1,1E0,8E0,5E0,9.37E2,6.6E1,5E0,3E0,5E0,6E0,1E0,2E0,2E0,1E0,5E0,6E0,1E0,2E0,2E0,4E0,5E0,4.4E1,3.3E1,1E0,7E0,4E0,1E0,6.5E1,8.72E2],"tree_param":{"num_deleted":"0","num_feature":"5","num_nodes":"65","size_leaf_vector":"1"}},{"base_weights":[1.7411528E-3,-1.0169053E0,2.0863542E-1,3.771975E0,-2.0452628E0,3.0364516E0,-2.2763472E-2,-1.1407292E0,1.2173531E1,-6.0822263E0,-1.0435216E0,-5.2819715E0,4.1415186E0,7.2233427E-1,-6.596047E-1,-1.103536E1,1.5231594E0,1.4892423E1,-1.8535856E0,-7.1115136E0,3.8738527E0,9.672081E-1,-3.513687E0,-8.4198487E-1,-4.164385E0,6.6181045E0,-6.686859E-1,-4.352856E0,1.1037358E0,-2.7283971E0,2.8330863E-1,-7.9403E-1,-1.2470817E1,-2.3508382E0,4.5413775E0,-1.4656591E0,1.735877E1,-1.2161431E0,3.8202956E-1,-5.0250263E0,-4.064197E0,-9.074971E-1,9.689501E0,2.2461817E0,-6.0971947E0,2.9113343E0,-6.816855E0,8.48943E0,-2.630126E0,-8.0617895E0,6.7801414E0,-8.031814E-1,-1.3570354E1,5.518381E0,5.014425E-1,-8.427431E0,-5.9876823E-1,9.284318E0,3.7624785E-3,-4.379734E0,-9.1288894E-1,2.3379798E0,-4.9059924E-1,5.647726E0,6.233906E-1,-2.2830975E-1,-2.2127876E0,-1.4990542E0,3.1842586E-1,3.43792E0,-9.354782E-3,5.7254663E0,-1.0549396E0,-3.8895705E0,-1.3648143E0,2.4282932E0,-9.7262615E-1,-5.7866883E-1,-2.4889162E0,1.771912E0,5.50407E0,-2.4347482E0,2.7653952E0,9.7640995E-3,-3.6339078E0,2.8645446E0,-3.5507414E0,-3.7165637E0,2.9243466E-1,-4.978649E0,-1.9189019E0,4.511431E0,2.6506865E-1,5.7250994E-1,-1.1484256E-1,-1.417713E0,-3.623386E0,-1.4552627E0,9.9633366E-2,7.307178E0,-1.9653675E-1,7.698538E-1,-1.5950458E-1],"categories":[],"categories_nodes":[],"categories_segments":[],"categories_sizes":[],"default_left":[0,0,0,0,0,0,0,0,0,0,0,0,0,0,0,0,0,0,0,0,0,0,0,0,0,0,0,0,0,0,0,0,0,0,0,0,0,0,0,0,0,0,0,0,0,0,0,0,0,0,0,0,0,0,0,0,0,0,0,0,0,0,0,0,0,0,0,0,0,0,0,0,0,0,0,0,0,0,0,0,0,0,0,0,0,0,0,0,0,0,0,0,0,0,0,0,0,0,0,0,0,0,0],"id":9,"left_children":[1,3,5,7,9,11,13,15,17,19,21,23,25,27,29,31,33,35,37,39,-1,41,43,45,-1,47,49,51,53,55,57,-1,59,-1,61,-1,63,-1,-1,65,-1,67,69,71,73,75,77,79,81,83,85,87,89,91,93,95,97,99,101,-1,-1,-1,-1,-1,-1,-1,-1,-1,-1,-1,-1,-1,-1,-1,-1,-1,-1,-1,-1,-1,-1,-1,-1,-1,-1,-1,-1,-1,-1,-1,-1,-1,-1,-1,-1,-1,-1,-1,-1,-1,-1,-1,-1],"loss_changes":[2.4468465E2,9.729521E2,6.315202E2,1.4584893E3,6.4877985E2,6.9292175E2,4.2421295E2,6.2304706E2,5.234011E2,7.174741E2,6.540537E2,3.319396E2,7.787628E2,8.023069E2,9.410066E2,2.7199951E1,5.723059E2,6.213794E2,2.580267E1,3.4819983E2,0E0,1.2024692E3,8.916546E2,1.768253E2,0E0,7.6650586E2,1.3212689E3,9.379551E2,1.01825476E3,1.8276146E3,8.3534265E2,0E0,3.5836487E1,0E0,3.1403394E2,0E0,1.8504736E2,0E0,0E0,2.449956E2,0E0,4.9645065E2,2.2405957E2,1.910786E3,3.7686438E2,1.8570766E2,5.69281E0,8.0828296E2,5.9477295E2,3.93899E2,7.314373E2,4.652399E2,6.746887E1,2.0163337E3,4.2247156E2,4.9696484E2,4.409711E2,1.5141233E3,4.4453058E2,0E0,0E0,0E0,0E0,0E0,0E0,0E0,0E0,0E0,0E0,0E0,0E0,0E0,0E0,0E0,0E0,0E0,0E0,0E0,0E0,0E0,0E0,0E0,0E0,0E0,0E0,0E0,0E0,0E0,0E0,0E0,0E0,0E0,0E0,0E0,0E0,0E0,0E0,0E0,0E0,0E0,0E0,0E0,0E0],"parents":[2147483647,0,0,1,1,2,2,3,3,4,4,5,5,6,6,7,7,8,8,9,9,10,10,11,11,12,12,13,13,14,14,15,15,16,16,17,17,18,18,19,19,21,21,22,22,23,23,25,25,26,26,27,27,28,28,29,29,30,30,32,32,34,34,36,36,39,39,41,41,42,42,43,43,44,44,45,45,46,46,47,47,48,48,49,49,50,50,51,51,52,52,53,53,54,54,55,55,56,56,57,57,58,58],"right_children":[2,4,6,8,10,12,14,16,18,20,22,24,26,28,30,32,34,36,38,40,-1,42,44,46,-1,48,50,52,54,56,58,-1,60,-1,62,-1,64,-1,-1,66,-1,68,70,72,74,76,78,80,82,84,86,88,90,92,94,96,98,100,102,-1,-1,-1,-1,-1,-1,-1,-1,-1,-1,-1,-1,-1,-1,-1,-1,-1,-1,-1,-1,-1,-1,-1,-1,-1,-1,-1,-1,-1,-1,-1,-1,-1,-1,-1,-1,-1,-1,-1,-1,-1,-1,-1,-1],"split_conditions":[3.1710002E0,1.4113652E1,4.821E0,1.2261158E1,1.7640919E1,1.5053425E1,1E-1,1.1549746E2,2.1355832E0,1.9E0,2.903116E2,4.12725E0,2.6127295E1,6.0314174E0,2.0008356E1,-5.810833E-1,-5.224833E0,5.584381E0,2.9459999E0,2E-1,3.8738527E0,2.7771948E2,2.266857E1,1.3849476E1,-4.164385E0,3.1976367E2,2.7526877E2,2.5982424E1,1.5617529E1,1.1731418E1,5.5626664E0,-7.9403E-1,1.1901798E1,-2.3508382E0,1.0914888E1,-1.4656591E0,5.3E0,-1.2161431E0,3.8202956E-1,1.5192682E1,-4.064197E0,2.1218632E1,3.0652895E1,-3.1477501E0,2.4014996E1,4.0085E0,3.5835E0,2.9748492E2,4.193917E0,7.3286705E1,4.71475E0,9.3669195E0,3.1492285E1,1.02022505E1,1.4475166E1,8.668916E0,3E-1,3E-1,2.167487E1,-4.379734E0,-9.1288894E-1,2.3379798E0,-4.9059924E-1,5.647726E0,6.233906E-1,-2.2830975E-1,-2.2127876E0,-1.4990542E0,3.1842586E-1,3.43792E0,-9.354782E-3,5.7254663E0,-1.0549396E0,-3.8895705E0,-1.3648143E0,2.4282932E0,-9.7262615E-1,-5.7866883E-1,-2.4889162E0,1.771912E0,5.50407E0,-2.4347482E0,2.7653952E0,9.7640995E-3,-3.6339078E0,2.8645446E0,-3.5507414E0,-3.7165637E0,2.9243466E-1,-4.978649E0,-1.9189019E0,4.511431E0,2.6506865E-1,5.7250994E-1,-1.1484256E-1,-1.417713E0,-3.623386E0,-1.4552627E0,9.9633366E-2,7.307178E0,-1.9653675E-1,7.698538E-1,-1.5950458E-1],"split_indices":[0,2,0,2,2,2,1,3,0,1,3,0,2,0,2,0,0,3,0,1,0,3,2,2,0,3,3,2,2,0,0,0,2,0,2,0,1,0,0,2,0,2,2,0,2,0,0,3,0,3,0,2,2,0,0,0,1,1,2,0,0,0,0,0,0,0,0,0,0,0,0,0,0,0,0,0,0,0,0,0,0,0,0,0,0,0,0,0,0,0,0,0,0,0,0,0,0,0,0,0,0,0,0],"split_type":[0,0,0,0,0,0,0,0,0,0,0,0,0,0,0,0,0,0,0,0,0,0,0,0,0,0,0,0,0,0,0,0,0,0,0,0,0,0,0,0,0,0,0,0,0,0,0,0,0,0,0,0,0,0,0,0,0,0,0,0,0,0,0,0,0,0,0,0,0,0,0,0,0,0,0,0,0,0,0,0,0,0,0,0,0,0,0,0,0,0,0,0,0,0,0,0,0,0,0,0,0,0,0],"sum_hessian":[1.159E3,1.95E2,9.64E2,3.4E1,1.61E2,7.2E1,8.92E2,2.2E1,1.2E1,3.1E1,1.3E2,8E0,6.4E1,4.11E2,4.81E2,4E0,1.8E1,1E1,2E0,3E1,1E0,7.2E1,5.8E1,6E0,2E0,4.2E1,2.2E1,2.8E1,3.83E2,1.5E2,3.31E2,1E0,3E0,4E0,1.4E1,1E0,9E0,1E0,1E0,2.4E1,6E0,6E1,1.2E1,1.8E1,4E1,4E0,2E0,3.5E1,7E0,1.1E1,1.1E1,2.1E1,7E0,4.5E1,3.38E2,4E1,1.1E2,9E0,3.22E2,2E0,1E0,9E0,5E0,8E0,1E0,9E0,1.5E1,1.9E1,4.1E1,1E1,2E0,4E0,1.4E1,6E0,3.4E1,2E0,2E0,1E0,1E0,2.9E1,6E0,5E0,2E0,4E0,7E0,1E1,1E0,2E0,1.9E1,4E0,3E0,1.4E1,3.1E1,1.3E2,2.08E2,2.1E1,1.9E1,1.9E1,9.1E1,3E0,6E0,5.5E1,2.67E2],"tree_param":{"num_deleted":"0","num_feature":"5","num_nodes":"103","size_leaf_vector":"1"}},{"base_weights":[-7.2550117E-3,-2.655387E-1,7.6142913E-1,-1.2538493E-1,-5.4153085E0,1.1314888E1,3.8582483E-1,-5.8822655E-3,-2.9827313E0,-1.0969814E1,1.6414081E0,5.907018E0,-9.9829483E-1,-7.328028E-1,1.8056326E0,-1.4341383E-1,4.167898E0,2.869842E0,-4.065978E0,-1.1993108E1,1.9645673E-1,-4.3932443E0,5.717387E0,2.97155E0,-2.5316513E0,-1.1046565E1,-3.2620943E-1,3.7228267E0,-4.7324398E-1,-3.3844825E-2,-7.2351866E0,9.747657E0,1.5991628E0,-2.6230857E0,-1.1332978E1,-4.609421E0,-6.060692E0,-7.57261E0,1.2486329E0,3.0557024E0,-1.802473E-1,1.2932968E-2,1.179998E0,-2.2446042E-1,-3.8869796E0,6.374951E-1,-3.2848203E0,2.272717E0,1.431456E1,-4.6197667E0,1.3587232E0,-4.3681413E-2,3.2223735E0,-2.556947E0,1.039872E0,2.9887736E-1,4.4397736E0,1.7627518E0,-1.0437732E-1,-2.2198005E0,-4.556216E-1,-4.011004E0,-4.7772563E-1,1.5162032E0,-2.7883306E0,7.199839E-1,-3.5090334E0,-2.799141E-1,3.1172276E-1,5.889782E-1,-7.5740314E-1,-3.117686E0,-6.428978E-1,4.0772243E0,4.9761105E-1,8.651781E0,1.3999336E0,-2.2633116E0,-2.5706953E-1,1.2991493E0,-8.037381E-1],"categories":[],"categories_nodes":[],"categories_segments":[],"categories_sizes":[],"default_left":[0,0,0,0,0,0,0,0,0,0,0,0,0,0,0,0,0,0,0,0,0,0,0,0,0,0,0,0,0,0,0,0,0,0,0,0,0,0,0,0,0,0,0,0,0,0,0,0,0,0,0,0,0,0,0,0,0,0,0,0,0,0,0,0,0,0,0,0,0,0,0,0,0,0,0,0,0,0,0,0,0],"id":10,"left_children":[1,3,5,7,9,11,13,15,17,19,21,-1,23,25,27,29,31,-1,33,35,-1,37,39,41,-1,43,45,47,49,51,53,55,57,59,61,-1,63,65,-1,-1,67,-1,-1,-1,-1,69,71,73,75,77,79,-1,-1,-1,-1,-1,-1,-1,-1,-1,-1,-1,-1,-1,-1,-1,-1,-1,-1,-1,-1,-1,-1,-1,-1,-1,-1,-1,-1,-1,-1],"loss_changes":[2.3050694E2,6.265301E2,1.1531005E3,2.8919952E2,9.1952716E2,1.0509066E3,4.50794E2,4.6785535E2,5.0107538E2,1.6249463E2,2.9568616E2,0E0,1.7276543E2,6.631642E2,5.4789294E2,6.128385E2,3.570679E2,0E0,3.058086E2,1.4690186E2,0E0,1.6752101E2,1.8630223E2,1.1096455E1,0E0,1.0832715E2,4.4118298E2,1.0118911E3,4.46862E2,9.384492E2,1.9494067E2,3.389237E2,1.6025851E2,1.364522E2,7.791858E1,0E0,2.6262668E2,1.925856E2,0E0,0E0,4.641131E0,0E0,0E0,0E0,0E0,4.9545547E2,2.8611853E2,4.013719E2,9.865117E2,1.9162347E2,5.0358466E2,0E0,0E0,0E0,0E0,0E0,0E0,0E0,0E0,0E0,0E0,0E0,0E0,0E0,0E0,0E0,0E0,0E0,0E0,0E0,0E0,0E0,0E0,0E0,0E0,0E0,0E0,0E0,0E0,0E0,0E0],"parents":[2147483647,0,0,1,1,2,2,3,3,4,4,5,5,6,6,7,7,8,8,9,9,10,10,12,12,13,13,14,14,15,15,16,16,18,18,19,19,21,21,22,22,23,23,25,25,26,26,27,27,28,28,29,29,30,30,31,31,32,32,33,33,34,34,36,36,37,37,40,40,45,45,46,46,47,47,48,48,49,49,50,50],"right_children":[2,4,6,8,10,12,14,16,18,20,22,-1,24,26,28,30,32,-1,34,36,-1,38,40,42,-1,44,46,48,50,52,54,56,58,60,62,-1,64,66,-1,-1,68,-1,-1,-1,-1,70,72,74,76,78,80,-1,-1,-1,-1,-1,-1,-1,-1,-1,-1,-1,-1,-1,-1,-1,-1,-1,-1,-1,-1,-1,-1,-1,-1,-1,-1,-1,-1,-1,-1],"split_conditions":[2.6882141E1,2.6478973E1,2.6983194E1,1.68E1,2.4693457E2,2.9711188E2,1.7000002E0,1.03E1,1.5696165E1,9.5E0,5.2855835E0,5.907018E0,6.973083E0,2.7067116E1,1.36E1,9E0,7.056417E0,2.869842E0,2.2752467E2,1.21918335E1,1.9645673E-1,1E-1,1.5475167E1,-4.612334E0,-2.5316513E0,1.4668335E0,3.362099E1,1.13E1,1.98E1,7.4999995E0,3.1069812E2,1.13E1,1.0700001E1,5.646E0,2.1600002E1,-4.609421E0,1.2839749E1,-5.7706666E0,1.2486329E0,3.0557024E0,1.5000001E0,1.2932968E-2,1.179998E0,-2.2446042E-1,-3.8869796E0,1E-1,3.368069E1,1.7189165E0,9.787665E0,1.1258499E1,1.14939165E1,-4.3681413E-2,3.2223735E0,-2.556947E0,1.039872E0,2.9887736E-1,4.4397736E0,1.7627518E0,-1.0437732E-1,-2.2198005E0,-4.556216E-1,-4.011004E0,-4.7772563E-1,1.5162032E0,-2.7883306E0,7.199839E-1,-3.5090334E0,-2.799141E-1,3.1172276E-1,5.889782E-1,-7.5740314E-1,-3.117686E0,-6.428978E-1,4.0772243E0,4.9761105E-1,8.651781E0,1.3999336E0,-2.2633116E0,-2.5706953E-1,1.2991493E0,-8.037381E-1],"split_indices":[2,2,2,1,3,3,1,1,2,1,0,0,0,2,1,1,0,0,3,0,0,1,0,0,0,0,2,1,1,1,3,1,1,0,1,0,0,0,0,0,1,0,0,0,0,1,2,0,0,0,0,0,0,0,0,0,0,0,0,0,0,0,0,0,0,0,0,0,0,0,0,0,0,0,0,0,0,0,0,0,0],"split_type":[0,0,0,0,0,0,0,0,0,0,0,0,0,0,0,0,0,0,0,0,0,0,0,0,0,0,0,0,0,0,0,0,0,0,0,0,0,0,0,0,0,0,0,0,0,0,0,0,0,0,0,0,0,0,0,0,0,0,0,0,0,0,0,0,0,0,0,0,0,0,0,0,0,0,0,0,0,0,0,0,0],"sum_hessian":[1.159E3,8.68E2,2.91E2,8.46E2,2.2E1,9E0,2.82E2,8.13E2,3.3E1,1.2E1,1E1,5E0,4E0,1.58E2,1.24E2,7.88E2,2.5E1,2E0,3.1E1,1.1E1,1E0,4E0,6E0,3E0,1E0,5E0,1.53E2,6.7E1,5.7E1,7.77E2,1.1E1,7E0,1.8E1,2.7E1,4E0,6E0,5E0,3E0,1E0,3E0,3E0,1E0,2E0,1E0,4E0,1.16E2,3.7E1,6E1,7E0,1.7E1,4E1,7.7E2,7E0,1E1,1E0,3E0,4E0,5E0,1.3E1,4E0,2.3E1,3E0,1E0,1E0,4E0,1E0,2E0,2E0,1E0,8.2E1,3.4E1,4E0,3.3E1,2E0,5.8E1,2E0,5E0,9E0,8E0,2.3E1,1.7E1],"tree_param":{"num_deleted":"0","num_feature":"5","num_nodes":"81","size_leaf_vector":"1"}},{"base_weights":[2.4699687E-3,-1.9087532E0,8.310284E-2,2.7963722E0,-2.6150026E0,7.493699E0,1.5963415E-2,3.7022147E-1,-5.017991E0,1.4541387E1,-2.4622662E0,-7.5400934E0,5.0263435E-2,-1.0912167E0,2.850777E0,-6.2462206E0,8.975307E-1,6.4597E0,3.72996E-1,-1.8187621E0,5.8762896E-1,9.9167064E-2,-2.8771186E0,-1.0041856E0,2.4522576E-1,-7.7529407E0,2.5798051E0,-3.0879972E0,-4.4504066E0,1.1176643E0,-9.4981617E-1,7.094735E0,-1.4948913E0,2.4911084E0,4.816218E-2,-2.5455089E0,-5.0406134E-1,-1.1996183E0,1.4859715E0,2.8048701E0,-2.0741122E0,-8.901913E-1,3.5492816E0,-9.772267E-1,-7.861851E-2,9.895998E-1,-6.070373E-1,1.877154E-1,-1.3164814E-1],"categories":[],"categories_nodes":[],"categories_segments":[],"categories_sizes":[],"default_left":[0,0,0,0,0,0,0,0,0,0,0,0,0,0,0,0,0,0,0,0,0,0,0,0,0,0,0,0,0,0,0,0,0,0,0,0,0,0,0,0,0,0,0,0,0,0,0,0,0],"id":11,"left_children":[1,3,5,-1,7,9,11,13,15,17,19,21,23,25,-1,27,-1,-1,29,-1,-1,-1,-1,31,33,35,37,-1,39,-1,-1,41,43,45,47,-1,-1,-1,-1,-1,-1,-1,-1,-1,-1,-1,-1,-1,-1],"loss_changes":[1.7892322E2,3.9714038E2,5.5414355E2,0E0,3.246634E2,7.3747E2,2.8676505E2,2.9064355E2,2.6463287E2,5.8627136E2,9.145966E1,8.38562E1,2.2658745E2,4.8465244E2,0E0,1.1408313E2,0E0,0E0,4.7389828E1,0E0,0E0,0E0,0E0,6.941659E2,4.11481E2,1.6863892E1,2.2278482E2,0E0,6.425294E2,0E0,0E0,5.116647E2,3.5332913E2,2.8010757E2,2.4103612E2,0E0,0E0,0E0,0E0,0E0,0E0,0E0,0E0,0E0,0E0,0E0,0E0,0E0,0E0],"parents":[2147483647,0,0,1,1,2,2,4,4,5,5,6,6,7,7,8,8,9,9,10,10,11,11,12,12,13,13,15,15,18,18,23,23,24,24,25,25,26,26,28,28,31,31,32,32,33,33,34,34],"right_children":[2,4,6,-1,8,10,12,14,16,18,20,22,24,26,-1,28,-1,-1,30,-1,-1,-1,-1,32,34,36,38,-1,40,-1,-1,42,44,46,48,-1,-1,-1,-1,-1,-1,-1,-1,-1,-1,-1,-1,-1,-1],"split_conditions":[1.2261158E1,1.1466662E1,1.2682018E1,2.7963722E0,2.5668333E0,1.3310582E1,1.285205E1,1.7189165E0,1.7581415E1,2.0293396E2,1.2371645E1,1E-1,3.1710002E0,2.5758E2,2.850777E0,4.4127655E1,8.975307E-1,6.4597E0,-8.899835E0,-1.8187621E0,5.8762896E-1,9.9167064E-2,-2.8771186E0,1.4044615E1,4.993917E0,2.555072E2,8.647496E0,-3.0879972E0,5.729813E1,1.1176643E0,-9.4981617E-1,2.0293396E2,2.1218632E1,8E0,1E-1,-2.5455089E0,-5.0406134E-1,-1.1996183E0,1.4859715E0,2.8048701E0,-2.0741122E0,-8.901913E-1,3.5492816E0,-9.772267E-1,-7.861851E-2,9.895998E-1,-6.070373E-1,1.877154E-1,-1.3164814E-1],"split_indices":[2,3,2,0,0,0,2,0,0,3,2,1,0,3,0,3,0,0,0,0,0,0,0,2,0,3,2,0,3,0,0,3,2,1,1,0,0,0,0,0,0,0,0,0,0,0,0,0,0],"split_type":[0,0,0,0,0,0,0,0,0,0,0,0,0,0,0,0,0,0,0,0,0,0,0,0,0,0,0,0,0,0,0,0,0,0,0,0,0,0,0,0,0,0,0,0,0,0,0,0,0],"sum_hessian":[1.159E3,4.6E1,1.113E3,2E0,4.4E1,9E0,1.104E3,2E1,2.4E1,5E0,4E0,4E0,1.1E3,1.8E1,2E0,2.1E1,3E0,3E0,2E0,2E0,2E0,1E0,3E0,1.71E2,9.29E2,6E0,1.2E1,5E0,1.6E1,1E0,1E0,9E0,1.62E2,7.4E1,8.55E2,5E0,1E0,3E0,9E0,2E0,1.4E1,3E0,6E0,6.6E1,9.6E1,6.3E1,1.1E1,3.91E2,4.64E2],"tree_param":{"num_deleted":"0","num_feature":"5","num_nodes":"49","size_leaf_vector":"1"}},{"base_weights":[6.975003E-3,6.793653E-2,-2.144042E0,-3.1712797E-2,1.12218685E1,-3.5107825E0,8.3008375E0,1.2605208E0,-1.6804148E-1,6.6543155E0,5.898416E0,-1.8848919E0,-1.093808E1,-1.1454695E0,1.3613271E1,1.334732E-1,8.164181E0,-5.0185266E0,-8.030148E-2,9.336431E0,1.638093E0,-3.034284E0,7.5554137E0,-4.211678E0,2.1979581E-1,6.008509E0,1.17463306E-1,6.809251E-1,-5.0517364E0,1.4277818E1,2.501999E0,-6.1722083E0,2.807284E0,-1.5793546E-4,-5.3270216E0,1.1336488E1,2.0043011E-1,-3.5671693E-1,8.930485E-1,-4.5838366E0,3.460872E0,2.978035E0,4.2190135E-1,1.0654998E-1,4.206696E0,-2.0420194E0,2.1814881E-1,1.7866898E0,7.016657E0,1.5593606E0,-1.3867089E0,-2.2484624E0,6.172913E-1,1.9944575E0,-7.3117965E-1,-4.1907214E-2,7.818953E-1,-1.9496323E0,4.5787394E-1,3.9396942E0,8.923514E-1,-7.5848347E-1,-2.5848503E0,-6.729235E-1,1.6342888E0],"categories":[],"categories_nodes":[],"categories_segments":[],"categories_sizes":[],"default_left":[0,0,0,0,0,0,0,0,0,0,0,0,0,0,0,0,0,0,0,0,0,0,0,0,0,0,0,0,0,0,0,0,0,0,0,0,0,0,0,0,0,0,0,0,0,0,0,0,0,0,0,0,0,0,0,0,0,0,0,0,0,0,0,0,0],"id":12,"left_children":[1,3,5,7,9,11,13,15,17,19,-1,21,23,-1,25,27,29,31,33,35,37,39,41,-1,-1,-1,-1,43,45,47,49,51,53,55,57,59,-1,-1,-1,61,63,-1,-1,-1,-1,-1,-1,-1,-1,-1,-1,-1,-1,-1,-1,-1,-1,-1,-1,-1,-1,-1,-1,-1,-1],"loss_changes":[1.5225563E2,1.2552188E3,4.8595654E2,1.9752054E2,2.5464648E2,3.2958612E2,3.095056E2,8.3145087E2,4.311367E2,9.2338745E1,0E0,2.9419064E2,1.9123138E2,0E0,2.4661377E2,2.6743457E2,4.8352478E2,1.7984006E2,4.1922842E2,7.911188E1,1.8678833E1,2.4734953E2,2.9784775E1,0E0,0E0,0E0,0E0,3.6443594E2,9.6227036E1,3.9147083E2,1.9688359E2,1.895871E2,7.663489E1,3.5787012E2,1.3037375E2,2.1004517E1,0E0,0E0,0E0,1.3570105E2,6.888127E1,0E0,0E0,0E0,0E0,0E0,0E0,0E0,0E0,0E0,0E0,0E0,0E0,0E0,0E0,0E0,0E0,0E0,0E0,0E0,0E0,0E0,0E0,0E0,0E0],"parents":[2147483647,0,0,1,1,2,2,3,3,4,4,5,5,6,6,7,7,8,8,9,9,11,11,12,12,14,14,15,15,16,16,17,17,18,18,19,19,20,20,21,21,22,22,27,27,28,28,29,29,30,30,31,31,32,32,33,33,34,34,35,35,39,39,40,40],"right_children":[2,4,6,8,10,12,14,16,18,20,-1,22,24,-1,26,28,30,32,34,36,38,40,42,-1,-1,-1,-1,44,46,48,50,52,54,56,58,60,-1,-1,-1,62,64,-1,-1,-1,-1,-1,-1,-1,-1,-1,-1,-1,-1,-1,-1,-1,-1,-1,-1,-1,-1,-1,-1,-1,-1],"split_conditions":[2.7900002E1,2.3800001E1,4.640091E1,5.729813E1,2.9074318E1,4.0340885E1,8.373083E0,4.8429253E1,6.860706E1,2.6099998E1,5.898416E0,3.8988182E1,9.873083E0,-1.1454695E0,1.02022505E1,3.005515E1,8.206416E0,1.9018917E1,1.9900003E1,1.6031416E1,1.5668331E0,4.8300003E1,8.1814165E0,-4.211678E0,2.1979581E-1,6.008509E0,1.17463306E-1,2.8551426E1,1.3883499E1,1.1E0,5.1461037E1,9.1E0,1.9770998E1,1.13E1,3.2154523E2,2.6925497E1,2.0043011E-1,-3.5671693E-1,8.930485E-1,3.8000004E1,1.0248082E1,2.978035E0,4.2190135E-1,1.0654998E-1,4.206696E0,-2.0420194E0,2.1814881E-1,1.7866898E0,7.016657E0,1.5593606E0,-1.3867089E0,-2.2484624E0,6.172913E-1,1.9944575E0,-7.3117965E-1,-4.1907214E-2,7.818953E-1,-1.9496323E0,4.5787394E-1,3.9396942E0,8.923514E-1,-7.5848347E-1,-2.5848503E0,-6.729235E-1,1.6342888E0],"split_indices":[1,1,2,3,2,2,0,3,3,1,0,2,0,0,0,2,0,0,1,0,0,1,0,0,0,0,0,2,0,1,3,1,0,1,3,2,0,0,0,1,0,0,0,0,0,0,0,0,0,0,0,0,0,0,0,0,0,0,0,0,0,0,0,0,0],"split_type":[0,0,0,0,0,0,0,0,0,0,0,0,0,0,0,0,0,0,0,0,0,0,0,0,0,0,0,0,0,0,0,0,0,0,0,0,0,0,0,0,0,0,0,0,0,0,0,0,0,0,0,0,0,0,0,0,0,0,0,0,0,0,0,0,0],"sum_hessian":[1.159E3,1.128E3,3.1E1,1.119E3,9E0,2.8E1,3E0,1.06E2,1.013E3,7E0,2E0,2.4E1,4E0,1E0,2E0,9.2E1,1.4E1,1.7E1,9.96E2,4E0,3E0,2.2E1,2E0,3E0,1E0,1E0,1E0,8.4E1,8E0,6E0,8E0,1.5E1,2E0,9.82E2,1.4E1,3E0,1E0,1E0,2E0,1.8E1,4E0,1E0,1E0,8.3E1,1E0,6E0,2E0,4E0,2E0,6E0,2E0,1.3E1,2E0,1E0,1E0,9.33E2,4.9E1,1.2E1,2E0,2E0,1E0,1.3E1,5E0,1E0,3E0],"tree_param":{"num_deleted":"0","num_feature":"5","num_nodes":"65","size_leaf_vector":"1"}},{"base_weights":[2.5417479E-2,-3.13815E-1,3.970577E-1,-5.242965E-2,-3.1623998E0,4.3545084E0,1.4611341E-1,-2.1431285E-1,8.824013E0,7.0109553E0,-4.674646E0,1.851717E1,-1.7071475E-1,-2.1510797E0,6.296747E-1,1.5921955E0,-5.586912E-1,-3.4782345E0,2.1821907E1,2.707404E0,4.92484E0,-9.009566E0,-2.426309E0,-5.0518E-1,6.4930816E0,-6.109425E0,2.33878E0,-1.045383E1,-1.3347336E0,3.1842692E0,2.2071773E-2,-1.1648499E0,3.5233202E0,-3.522313E-1,-4.4750915E0,-6.1957912E0,1.3045858E0,1.2663924E1,-5.8432336E0,-7.436062E-1,4.2403593E0,-4.2878404E0,-4.6132545E0,-3.0352216E0,2.3761592E0,-7.6415634E-1,-9.163755E0,-3.0693233E-1,9.808161E0,6.6482395E-1,-1.25803995E1,1.0031059E1,-2.0284114E0,1.5474904E1,1.666936E0,-7.5559855E0,2.214298E-1,-2.0135689E0,1.7904432E-1,4.8251405E0,7.278211E-1,-4.0587205E-2,-1.0595334E0,-1.7808986E0,2.1735795E0,-2.353127E0,-1.8778439E-1,2.4977304E-2,5.6208634E-1,-3.8907511E0,1.2612958E0,2.4977304E-2,1.5776463E0,6.793115E-2,-3.33476E0,-1.3342448E-1,-1.9165658E0,-5.8548623E-1,4.1973555E-1,-3.1212049E0,-6.30407E-1,2.4685102E0,-4.5130113E-1,1.0841641E0,3.8199165E0,-6.7589897E-1,-4.17784E0,5.027382E0,1.2479565E0,-2.0790532E0,-1.4806233E-1,5.1452E0,3.1032372E-1,8.237927E-2,2.165395E0,7.5963444E-1,-3.2400093E0,2.4947079E-2,2.0480683E0],"categories":[],"categories_nodes":[],"categories_segments":[],"categories_sizes":[],"default_left":[0,0,0,0,0,0,0,0,0,0,0,0,0,0,0,0,0,0,0,0,0,0,0,0,0,0,0,0,0,0,0,0,0,0,0,0,0,0,0,0,0,0,0,0,0,0,0,0,0,0,0,0,0,0,0,0,0,0,0,0,0,0,0,0,0,0,0,0,0,0,0,0,0,0,0,0,0,0,0,0,0,0,0,0,0,0,0,0,0,0,0,0,0,0,0,0,0,0,0],"id":13,"left_children":[1,3,5,7,9,11,13,15,17,19,21,23,25,27,29,31,33,35,37,39,-1,41,43,-1,-1,45,47,49,51,53,55,57,59,61,63,65,67,-1,69,-1,71,73,-1,75,-1,77,79,81,83,-1,85,87,89,91,93,95,97,-1,-1,-1,-1,-1,-1,-1,-1,-1,-1,-1,-1,-1,-1,-1,-1,-1,-1,-1,-1,-1,-1,-1,-1,-1,-1,-1,-1,-1,-1,-1,-1,-1,-1,-1,-1,-1,-1,-1,-1,-1,-1],"loss_changes":[1.4636864E2,4.5179324E2,5.4954095E2,8.0227045E2,8.173893E2,2.118105E3,5.8120966E2,3.418126E2,1.6749347E3,2.3888452E2,4.167262E2,5.4170557E2,4.0177078E2,6.028375E2,6.704711E2,4.7263367E2,3.7117892E2,8.606846E1,3.0672837E3,5.821081E1,0E0,3.8507922E2,2.1935042E2,0E0,0E0,1.2360718E2,3.7848523E2,2.434267E2,6.826198E2,1.5220702E3,5.304343E2,3.6557098E2,6.776428E2,3.023324E2,4.3691327E2,3.1805847E1,1.9289427E0,0E0,2.6932117E2,0E0,2.0731392E1,3.1075305E2,0E0,2.5776013E2,0E0,1.3005796E1,2.1933533E1,1.6568135E2,4.4572327E1,0E0,6.5910034E1,1.27763824E2,5.984656E2,2.0004858E2,5.7768823E2,3.2188318E2,3.1180023E2,0E0,0E0,0E0,0E0,0E0,0E0,0E0,0E0,0E0,0E0,0E0,0E0,0E0,0E0,0E0,0E0,0E0,0E0,0E0,0E0,0E0,0E0,0E0,0E0,0E0,0E0,0E0,0E0,0E0,0E0,0E0,0E0,0E0,0E0,0E0,0E0,0E0,0E0,0E0,0E0,0E0,0E0],"parents":[2147483647,0,0,1,1,2,2,3,3,4,4,5,5,6,6,7,7,8,8,9,9,10,10,11,11,12,12,13,13,14,14,15,15,16,16,17,17,18,18,19,19,21,21,22,22,25,25,26,26,27,27,28,28,29,29,30,30,31,31,32,32,33,33,34,34,35,35,36,36,38,38,40,40,41,41,43,43,45,45,46,46,47,47,48,48,50,50,51,51,52,52,53,53,54,54,55,55,56,56],"right_children":[2,4,6,8,10,12,14,16,18,20,22,24,26,28,30,32,34,36,38,40,-1,42,44,-1,-1,46,48,50,52,54,56,58,60,62,64,66,68,-1,70,-1,72,74,-1,76,-1,78,80,82,84,-1,86,88,90,92,94,96,98,-1,-1,-1,-1,-1,-1,-1,-1,-1,-1,-1,-1,-1,-1,-1,-1,-1,-1,-1,-1,-1,-1,-1,-1,-1,-1,-1,-1,-1,-1,-1,-1,-1,-1,-1,-1,-1,-1,-1,-1,-1,-1],"split_conditions":[2.245315E1,2.1786694E1,2.3051247E1,2.1611998E1,2.9459999E0,5.2855835E0,3.6439161E0,8.470098E1,2.8923502E2,2.783687E2,1.0914749E1,4.4127655E1,1.739702E2,2.3664352E1,7.6835003E0,8.1814165E0,2.1398056E1,1.9314867E2,3.1069812E2,5.3894157E1,4.92484E0,2.5917328E2,3.317729E2,-5.0518E-1,6.4930816E0,2.273707E1,8.000001E-1,-3.1477501E0,2.3828083E1,2.4363249E1,8.112666E0,1.1901798E1,8.460583E0,3.3956094E2,3.2617477E2,2.167487E1,-8.685836E-1,1.2663924E1,-2.4394164E0,-7.436062E-1,-2.0331666E0,2.2322903E1,-4.6132545E0,2.0759389E2,2.3761592E0,5.1461037E1,2.2293915E1,7.8897495E0,1.76835E1,6.6482395E-1,2.3113008E1,4.126667E-1,2.5567604E1,6.199999E0,1.0700001E1,1E-1,4.8300003E1,-2.0135689E0,1.7904432E-1,4.8251405E0,7.278211E-1,-4.0587205E-2,-1.0595334E0,-1.7808986E0,2.1735795E0,-2.353127E0,-1.8778439E-1,2.4977304E-2,5.6208634E-1,-3.8907511E0,1.2612958E0,2.4977304E-2,1.5776463E0,6.793115E-2,-3.33476E0,-1.3342448E-1,-1.9165658E0,-5.8548623E-1,4.1973555E-1,-3.1212049E0,-6.30407E-1,2.4685102E0,-4.5130113E-1,1.0841641E0,3.8199165E0,-6.7589897E-1,-4.17784E0,5.027382E0,1.2479565E0,-2.0790532E0,-1.4806233E-1,5.1452E0,3.1032372E-1,8.237927E-2,2.165395E0,7.5963444E-1,-3.2400093E0,2.4947079E-2,2.0480683E0],"split_indices":[2,2,2,2,0,0,0,3,3,3,0,3,3,2,0,0,2,3,3,3,0,3,3,0,0,2,1,0,2,2,0,2,0,3,3,2,0,0,0,0,0,2,0,3,0,3,0,0,0,0,2,0,2,1,1,1,1,0,0,0,0,0,0,0,0,0,0,0,0,0,0,0,0,0,0,0,0,0,0,0,0,0,0,0,0,0,0,0,0,0,0,0,0,0,0,0,0,0,0],"split_type":[0,0,0,0,0,0,0,0,0,0,0,0,0,0,0,0,0,0,0,0,0,0,0,0,0,0,0,0,0,0,0,0,0,0,0,0,0,0,0,0,0,0,0,0,0,0,0,0,0,0,0,0,0,0,0,0,0,0,0,0,0,0,0,0,0,0,0,0,0,0,0,0,0,0,0,0,0,0,0,0,0,0,0,0,0,0,0,0,0,0,0,0,0,0,0,0,0,0,0],"sum_hessian":[1.159E3,6.06E2,5.53E2,5.56E2,5E1,3.2E1,5.21E2,5.47E2,9E0,6E0,4.4E1,7E0,2.5E1,9E1,4.31E2,8.7E1,4.6E2,5E0,4E0,5E0,1E0,1.4E1,3E1,1E0,6E0,7E0,1.8E1,7E0,8.3E1,8.2E1,3.49E2,3.6E1,5.1E1,4.38E2,2.2E1,3E0,2E0,2E0,2E0,1E0,4E0,9E0,5E0,2.9E1,1E0,3E0,4E0,1.4E1,4E0,1E0,6E0,4E0,7.9E1,8E0,7.4E1,8E0,3.41E2,8E0,2.8E1,3E0,4.8E1,4.11E2,2.7E1,2E1,2E0,2E0,1E0,1E0,1E0,1E0,1E0,1E0,3E0,6E0,3E0,1.7E1,1.2E1,2E0,1E0,3E0,1E0,1E0,1.3E1,2E0,2E0,1E0,5E0,1E0,3E0,1.8E1,6.1E1,7E0,1E0,6E1,1.4E1,2E0,6E0,3.35E2,6E0],"tree_param":{"num_deleted":"0","num_feature":"5","num_nodes":"99","size_leaf_vector":"1"}},{"base_weights":[3.974812E-2,-3.7236352E0,7.571114E-2,-6.6944613E0,-1.3220342E-1,1.8388395E-1,-9.4868535E-1,-2.213746E0,-3.1311784E0,1.4757633E0,-2.2320912E0,1.1702944E-1,3.7737937E0,-2.4520946E0,-1.9817656E-2,-1.1304616E0,3.6744463E-1,5.236103E-1,1.0004254E-1,-8.636587E-1,-1.4078236E-1,1.7970018E-1,-2.4991279E0,1.216187E0,3.9182317E0,-3.5263586E0,2.5543227E0,2.2877944E0,-1.6515477E0,2.4301828E-1,-2.111097E0,-1.3728683E0,-1.9513023E0,4.3556447E0,-2.4677262E0,-1.6433555E0,-5.2134533E0,5.680603E0,-1.9921083E0,-1.0370127E0,5.0540133E0,4.6572704E0,-2.657141E0,4.7255635E-2,2.5408258E0,-1.0737647E0,1.5193399E0,-7.8902537E-1,1.2940553E0,2.800973E-1,1.7733086E0,-1.7163223E0,1.885492E-1,-1.1959191E-1,-1.7700603E0,-9.365922E-1,-2.2312667E0,1.9714986E0,3.174551E-1,-1.4024651E0,9.084326E-1,-5.5813086E-1,1.4501238E0,2.0377328E0,-1.4229984E0,1.9867676E0,-7.753756E-1,1.0330322E-1,-1.1474408E0],"categories":[],"categories_nodes":[],"categories_segments":[],"categories_sizes":[],"default_left":[0,0,0,0,0,0,0,0,0,0,0,0,0,0,0,0,0,0,0,0,0,0,0,0,0,0,0,0,0,0,0,0,0,0,0,0,0,0,0,0,0,0,0,0,0,0,0,0,0,0,0,0,0,0,0,0,0,0,0,0,0,0,0,0,0,0,0,0,0],"id":14,"left_children":[1,3,5,7,9,11,13,15,-1,17,19,21,23,25,27,-1,-1,-1,-1,-1,-1,29,31,33,-1,35,37,39,41,43,45,47,-1,49,51,53,55,57,59,61,63,65,67,-1,-1,-1,-1,-1,-1,-1,-1,-1,-1,-1,-1,-1,-1,-1,-1,-1,-1,-1,-1,-1,-1,-1,-1,-1,-1],"loss_changes":[1.5727934E2,1.16479675E2,1.27608086E2,7.751706E1,2.3553337E1,2.4940012E2,1.5356293E2,2.5995768E1,0E0,6.4982605E-1,2.06944E0,1.6817664E2,4.35412E2,2.3489246E2,2.6359097E2,0E0,0E0,0E0,0E0,0E0,0E0,1.4556197E2,9.933223E1,1.9579637E2,0E0,1.02620575E2,1.2502371E2,2.7195825E2,2.7248337E2,6.83732E2,3.025603E2,1.5432526E2,0E0,4.2383636E1,8.4180435E1,9.3022064E1,6.051007E1,1.3640213E1,6.80285E1,7.6670555E1,3.0473056E2,1.02510574E2,1.2748688E2,0E0,0E0,0E0,0E0,0E0,0E0,0E0,0E0,0E0,0E0,0E0,0E0,0E0,0E0,0E0,0E0,0E0,0E0,0E0,0E0,0E0,0E0,0E0,0E0,0E0,0E0],"parents":[2147483647,0,0,1,1,2,2,3,3,4,4,5,5,6,6,7,7,9,9,10,10,11,11,12,12,13,13,14,14,21,21,22,22,23,23,25,25,26,26,27,27,28,28,29,29,30,30,31,31,33,33,34,34,35,35,36,36,37,37,38,38,39,39,40,40,41,41,42,42],"right_children":[2,4,6,8,10,12,14,16,-1,18,20,22,24,26,28,-1,-1,-1,-1,-1,-1,30,32,34,-1,36,38,40,42,44,46,48,-1,50,52,54,56,58,60,62,64,66,68,-1,-1,-1,-1,-1,-1,-1,-1,-1,-1,-1,-1,-1,-1,-1,-1,-1,-1,-1,-1,-1,-1,-1,-1,-1,-1],"split_conditions":[5.584381E0,6.4376664E0,2.4400167E1,1.7238699E1,1.6031416E1,2.4070997E1,2.5254333E1,5.2855835E0,-3.1311784E0,9.645999E0,2.3006414E1,2.3498083E1,2.4881702E1,7.3999996E0,2.0613094E2,-1.1304616E0,3.6744463E-1,5.236103E-1,1.0004254E-1,-8.636587E-1,-1.4078236E-1,2.7900002E1,2.8019936E1,2.420225E1,3.9182317E0,5E-1,1.3E1,1.8081007E2,2.5506414E1,2.3800001E1,4.5107872E1,2.6042212E1,-1.9513023E0,2E-1,4E-1,2.7257967E1,1.9487576E2,1.944E1,2.4195107E1,3.552527E1,3.5E0,2.3441502E1,2.0803045E1,4.7255635E-2,2.5408258E0,-1.0737647E0,1.5193399E0,-7.8902537E-1,1.2940553E0,2.800973E-1,1.7733086E0,-1.7163223E0,1.885492E-1,-1.1959191E-1,-1.7700603E0,-9.365922E-1,-2.2312667E0,1.9714986E0,3.174551E-1,-1.4024651E0,9.084326E-1,-5.5813086E-1,1.4501238E0,2.0377328E0,-1.4229984E0,1.9867676E0,-7.753756E-1,1.0330322E-1,-1.1474408E0],"split_indices":[3,0,0,2,0,0,0,0,0,0,0,0,2,1,3,0,0,0,0,0,0,1,2,0,0,1,1,3,0,1,2,2,0,1,1,2,3,2,2,2,1,2,2,0,0,0,0,0,0,0,0,0,0,0,0,0,0,0,0,0,0,0,0,0,0,0,0,0,0],"split_type":[0,0,0,0,0,0,0,0,0,0,0,0,0,0,0,0,0,0,0,0,0,0,0,0,0,0,0,0,0,0,0,0,0,0,0,0,0,0,0,0,0,0,0,0,0,0,0,0,0,0,0,0,0,0,0,0,0,0,0,0,0,0,0,0,0,0,0,0,0],"sum_hessian":[1.159E3,1E1,1.149E3,5E0,5E0,1.04E3,1.09E2,3E0,2E0,3E0,2E0,1.022E3,1.8E1,4.1E1,6.8E1,2E0,1E0,2E0,1E0,1E0,1E0,9.99E2,2.3E1,1.5E1,3E0,3.4E1,7E0,2.8E1,4E1,9.73E2,2.6E1,1.9E1,4E0,8E0,7E0,1.7E1,1.7E1,4E0,3E0,1.3E1,1.5E1,5E0,3.5E1,9.64E2,9E0,2.2E1,4E0,1.6E1,3E0,3E0,5E0,3E0,4E0,1.4E1,3E0,1E1,7E0,3E0,1E0,2E0,1E0,1.2E1,1E0,1.3E1,2E0,4E0,1E0,1E1,2.5E1],"tree_param":{"num_deleted":"0","num_feature":"5","num_nodes":"69","size_leaf_vector":"1"}},{"base_weights":[2.7967563E-2,-2.582608E0,6.2112994E-2,-5.224117E0,-2.4114482E-1,1.0139835E0,-3.2859817E-2,-2.3038783E0,-2.5049427E0,1.7775398E0,-2.2116005E0,4.4081438E-1,1.22745695E1,-6.4041705E0,6.0048368E-2,-1.0201185E0,3.1232816E-1,7.3135793E-1,1.5741196E-1,-7.6951766E-1,-1.1966515E-1,1.6852422E0,-3.359879E0,1.5811967E0,4.5560884E0,-7.021017E0,3.3475173E-1,-3.1767356E-1,4.6343797E-1,-2.1642762E-1,7.8248687E0,-1.2643505E1,-9.894974E-1,-1.6353216E0,-8.341178E0,-3.0551039E-2,-2.9674478E0,5.449511E0,2.7588546E-1,4.6473852E-1,-2.4184506E0,4.1980896E0,4.471488E-1,-4.593373E0,-1.7283801E0,1.8391588E0,-1.2738631E0,-1.1780148E0,1.3121453E-1,3.2994235E-1,-2.8185773E0,-5.135547E-2,2.8550477E0,-1.8480082E0,-2.3387554E-1,4.8703704E0,6.6305864E-1,-4.136099E-1,1.8282463E-1],"categories":[],"categories_nodes":[],"categories_segments":[],"categories_sizes":[],"default_left":[0,0,0,0,0,0,0,0,0,0,0,0,0,0,0,0,0,0,0,0,0,0,0,0,0,0,0,0,0,0,0,0,0,0,0,0,0,0,0,0,0,0,0,0,0,0,0,0,0,0,0,0,0,0,0,0,0,0,0],"id":15,"left_children":[1,3,5,7,9,11,13,15,-1,17,19,21,23,25,27,-1,-1,-1,-1,-1,-1,29,31,-1,-1,33,-1,35,37,39,41,43,45,47,49,51,53,55,57,-1,-1,-1,-1,-1,-1,-1,-1,-1,-1,-1,-1,-1,-1,-1,-1,-1,-1,-1,-1],"loss_changes":[1.0356193E2,9.1515175E1,1.0363381E2,4.4657394E1,3.9730762E1,6.658281E2,6.177852E2,2.1879215E1,0E0,2.857193E0,2.180437E0,4.7863107E2,2.1945435E1,7.741467E1,1.5693503E2,0E0,0E0,0E0,0E0,0E0,0E0,8.890348E2,5.376327E2,0E0,0E0,8.589923E1,0E0,4.046602E2,4.6420148E2,8.2969244E2,6.8249695E2,3.5878906E0,5.12977E2,2.0714994E1,1.1979993E2,6.474603E2,3.5841388E2,5.929701E2,2.6628177E2,0E0,0E0,0E0,0E0,0E0,0E0,0E0,0E0,0E0,0E0,0E0,0E0,0E0,0E0,0E0,0E0,0E0,0E0,0E0,0E0],"parents":[2147483647,0,0,1,1,2,2,3,3,4,4,5,5,6,6,7,7,9,9,10,10,11,11,12,12,13,13,14,14,21,21,22,22,25,25,27,27,28,28,29,29,30,30,31,31,32,32,33,33,34,34,35,35,36,36,37,37,38,38],"right_children":[2,4,6,8,10,12,14,16,-1,18,20,22,24,26,28,-1,-1,-1,-1,-1,-1,30,32,-1,-1,34,-1,36,38,40,42,44,46,48,50,52,54,56,58,-1,-1,-1,-1,-1,-1,-1,-1,-1,-1,-1,-1,-1,-1,-1,-1,-1,-1,-1,-1],"split_conditions":[6.791316E0,6.4376664E0,4.7099996E-1,1.7238699E1,1.970433E1,4.126667E-1,9.7516656E-1,5.2855835E0,-2.5049427E0,1.6575644E1,2.5754333E1,3.137812E2,3.0820993E2,3.5201974E2,2.2565422E1,-1.0201185E0,3.1232816E-1,7.3135793E-1,1.5741196E-1,-7.6951766E-1,-1.1966515E-1,2.993794E2,3.177747E2,1.5811967E0,4.5560884E0,1.4879153E1,3.3475173E-1,2.1786694E1,2.289611E1,2.903116E2,2.1786694E1,1.811841E1,3.2617477E2,1.0914888E1,1.9975282E2,2.1611998E1,2.2148046E1,7.8897495E0,1.108835E2,4.6473852E-1,-2.4184506E0,4.1980896E0,4.471488E-1,-4.593373E0,-1.7283801E0,1.8391588E0,-1.2738631E0,-1.1780148E0,1.3121453E-1,3.2994235E-1,-2.8185773E0,-5.135547E-2,2.8550477E0,-1.8480082E0,-2.3387554E-1,4.8703704E0,6.6305864E-1,-4.136099E-1,1.8282463E-1],"split_indices":[3,0,0,2,0,0,0,0,0,2,0,3,3,3,2,0,0,0,0,0,0,3,3,0,0,2,0,2,2,3,2,2,3,2,3,2,2,0,3,0,0,0,0,0,0,0,0,0,0,0,0,0,0,0,0,0,0,0,0],"split_type":[0,0,0,0,0,0,0,0,0,0,0,0,0,0,0,0,0,0,0,0,0,0,0,0,0,0,0,0,0,0,0,0,0,0,0,0,0,0,0,0,0,0,0,0,0,0,0,0,0,0,0,0,0,0,0,0,0,0,0],"sum_hessian":[1.159E3,1.4E1,1.145E3,6E0,8E0,1.03E2,1.042E3,4E0,2E0,4E0,4E0,9.9E1,4E0,1.4E1,1.028E3,3E0,1E0,2E0,2E0,3E0,1E0,7.5E1,2.4E1,2E0,2E0,1.3E1,1E0,5.31E2,4.97E2,5.8E1,1.7E1,4E0,2E1,3E0,1E1,4.8E2,5.1E1,1.7E1,4.8E2,4.8E1,1E1,8E0,9E0,2E0,2E0,6E0,1.4E1,1E0,2E0,1E0,9E0,4.74E2,6E0,2E1,3.1E1,3E0,1.4E1,8E1,4E2],"tree_param":{"num_deleted":"0","num_feature":"5","num_nodes":"59","size_leaf_vector":"1"}},{"base_weights":[2.18913E-2,-1.2832572E-1,4.6079615E-1,-5.1128417E-2,-2.517509E0,9.405999E0,2.7477548E-1,5.7308994E-2,-1.7330104E0,1.3076136E1,-1.3417025E0,3.0913458E0,-1.6048546E-1,-9.81855E-3,3.8603063E0,-4.573313E0,8.648675E-1,5.979972E0,6.3785496E0,4.75109E0,-2.969034E0,-6.662616E0,1.9091778E-1,-8.828226E-1,1.9489174E-1,7.971799E0,-2.9503167E0,-3.954694E0,-2.3057747E0,6.3208494E0,-1.254786E0,2.1587982E0,5.8893245E-1,8.516578E0,1.558428E0,-2.4197583E0,-3.6053196E-1,-1.0094242E1,8.140887E0,3.1707182E0,-4.1785204E-1,-3.7459627E-2,-1.9429041E0,1.0100795E-1,-7.582746E-1,-5.9646076E-1,3.330463E0,-2.3780456E0,3.2898285E0,-1.5524045E0,6.2831974E-1,2.624156E0,-1.9163246E-1,7.002423E-1,-9.6479213E-1,1.5373597E0,7.8919754E0,-1.5457815E0,8.1580347E-1,4.1681656E-1,-1.6290082E0,-1.4505405E0,-4.6314435E0,-1.5671769E-1,3.820117E0,1.229767E0,-1.9328269E0,-6.5443957E-1,1.4407025E-1],"categories":[],"categories_nodes":[],"categories_segments":[],"categories_sizes":[],"default_left":[0,0,0,0,0,0,0,0,0,0,0,0,0,0,0,0,0,0,0,0,0,0,0,0,0,0,0,0,0,0,0,0,0,0,0,0,0,0,0,0,0,0,0,0,0,0,0,0,0,0,0,0,0,0,0,0,0,0,0,0,0,0,0,0,0,0,0,0,0],"id":16,"left_children":[1,3,5,7,-1,9,11,13,15,17,-1,19,21,23,25,27,29,-1,31,33,35,37,39,41,43,45,47,-1,49,51,53,-1,-1,55,57,-1,59,61,63,65,67,-1,-1,-1,-1,-1,-1,-1,-1,-1,-1,-1,-1,-1,-1,-1,-1,-1,-1,-1,-1,-1,-1,-1,-1,-1,-1,-1,-1],"loss_changes":[7.653906E1,5.51363E2,4.899572E2,1.5658046E2,0E0,3.6409338E2,3.5724554E2,2.060536E2,3.8765082E2,1.0248505E2,0E0,4.063947E2,5.79344E2,1.4207011E2,4.1554486E2,4.5763556E2,3.3174545E2,0E0,3.1100464E-1,3.5940735E2,1.1674775E2,7.425774E2,4.385019E2,6.393788E2,2.494676E2,3.026223E2,5.0245648E2,0E0,2.7593533E2,1.4067862E2,1.5531628E2,0E0,0E0,7.100141E2,1.5424881E2,0E0,6.964291E1,2.3450012E2,1.2601903E2,3.9238275E2,3.1940683E2,0E0,0E0,0E0,0E0,0E0,0E0,0E0,0E0,0E0,0E0,0E0,0E0,0E0,0E0,0E0,0E0,0E0,0E0,0E0,0E0,0E0,0E0,0E0,0E0,0E0,0E0,0E0,0E0],"parents":[2147483647,0,0,1,1,2,2,3,3,5,5,6,6,7,7,8,8,9,9,11,11,12,12,13,13,14,14,15,15,16,16,18,18,19,19,20,20,21,21,22,22,23,23,24,24,25,25,26,26,28,28,29,29,30,30,33,33,34,34,36,36,37,37,38,38,39,39,40,40],"right_children":[2,4,6,8,-1,10,12,14,16,18,-1,20,22,24,26,28,30,-1,32,34,36,38,40,42,44,46,48,-1,50,52,54,-1,-1,56,58,-1,60,62,64,66,68,-1,-1,-1,-1,-1,-1,-1,-1,-1,-1,-1,-1,-1,-1,-1,-1,-1,-1,-1,-1,-1,-1,-1,-1,-1,-1,-1,-1],"split_conditions":[2.6999998E0,2.5E0,2.7999997E0,3.3061253E1,-2.517509E0,2.2812746E2,4.3751664E0,3.1810638E1,2.4885121E2,2.7E0,-1.3417025E0,3.005515E1,5.7085E0,3.1710002E0,1E-1,5.646E0,2.7526877E2,5.979972E0,1.3527249E1,1.0730493E2,2.7349789E1,2.7021591E1,8.7835E0,2.321E0,2.9407835E1,2.0613094E2,1.106475E1,-3.954694E0,3.552527E1,3E-1,3.4877293E1,2.1587982E0,5.8893245E-1,8.111591E1,1.9975282E2,-2.4197583E0,1.9000004E1,5.0918336E0,4.4501667E0,3.47E1,1.4475166E1,-3.7459627E-2,-1.9429041E0,1.0100795E-1,-7.582746E-1,-5.9646076E-1,3.330463E0,-2.3780456E0,3.2898285E0,-1.5524045E0,6.2831974E-1,2.624156E0,-1.9163246E-1,7.002423E-1,-9.6479213E-1,1.5373597E0,7.8919754E0,-1.5457815E0,8.1580347E-1,4.1681656E-1,-1.6290082E0,-1.4505405E0,-4.6314435E0,-1.5671769E-1,3.820117E0,1.229767E0,-1.9328269E0,-6.5443957E-1,1.4407025E-1],"split_indices":[1,1,1,2,0,3,0,2,3,1,0,2,0,0,1,0,3,0,0,3,3,2,0,0,2,3,0,0,2,1,2,0,0,3,3,0,1,0,0,1,0,0,0,0,0,0,0,0,0,0,0,0,0,0,0,0,0,0,0,0,0,0,0,0,0,0,0,0,0],"split_type":[0,0,0,0,0,0,0,0,0,0,0,0,0,0,0,0,0,0,0,0,0,0,0,0,0,0,0,0,0,0,0,0,0,0,0,0,0,0,0,0,0,0,0,0,0,0,0,0,0,0,0,0,0,0,0,0,0,0,0,0,0,0,0,0,0,0,0,0,0],"sum_hessian":[1.159E3,8.64E2,2.95E2,8.57E2,7E0,5E0,2.9E2,8.06E2,5.1E1,4E0,1E0,3.8E1,2.52E2,7.93E2,1.3E1,2.4E1,2.7E1,1E0,3E0,3E1,8E0,1.2E1,2.4E2,1.5E2,6.43E2,8E0,5E0,4E0,2E1,7E0,2E1,2E0,1E0,1.3E1,1.7E1,2E0,6E0,1E1,2E0,4E1,2E2,1.33E2,1.7E1,6.12E2,3.1E1,2E0,6E0,4E0,1E0,1.2E1,8E0,5E0,2E0,7E0,1.3E1,1.2E1,1E0,2E0,1.5E1,5E0,1E0,6E0,4E0,1E0,1E0,3.7E1,3E0,6.7E1,1.33E2],"tree_param":{"num_deleted":"0","num_feature":"5","num_nodes":"69","size_leaf_vector":"1"}},{"base_weights":[1.9289894E-2,2.1184465E-1,-3.7343118E-1,-2.3459445E-1,6.4868134E-1,-2.0117567E0,-1.4869405E-1,3.2531694E-1,-3.0047002E0,3.0541527E0,8.287182E-2,1.7360371E0,-5.8350306E0,5.8486037E0,-2.5663108E-1,8.307953E-2,3.624778E0,-6.2572813E0,9.985539E-1,-4.6079162E-1,5.157966E0,-2.3054054E0,6.889466E-1,-3.4984143E0,3.2976513E0,7.0003444E-1,-6.4907527E0,-1.2453765E0,8.678826E0,-1.4964397E0,5.661634E-2,-9.0436226E-1,1.1236945E0,9.3122816E-1,6.112056E0,7.758911E0,-7.3099666E0,1.4268228E1,-2.22611E0,-2.1074758E0,6.846955E0,1.2744403E1,2.7631347E0,-5.4629827E0,-6.027735E-2,1.1766463E1,1.9080989E-1,-1.9280602E0,-1.7025279E0,2.96775E0,8.7952524E-1,1.265466E0,-9.504505E-1,-7.3569036E0,-3.7074642E0,3.458325E0,8.810883E-1,-6.6163144E0,2.3952705E-1,7.254144E0,-1.6591972E-1,-2.0050405E-2,-1.8736211E0,2.5790987E0,-3.6268834E-2,-2.208916E0,6.7856205E-1,3.9467698E-1,3.0968332E0,2.3449678E0,-2.4015636E0,7.292837E-1,1.1018196E1,3.1925938E-1,-1.2430261E0,1.6758233E0,-1.3378891E0,5.7951865E0,1.868657E0,-9.4477534E-1,1.718115E0,-2.9765143E0,9.3270975E-1,7.604415E-1,-2.3518488E0,5.7848125E0,6.867424E-1,-1.2210877E0,2.337069E-1,4.6264613E-1,-1.4266762E0,-8.32986E-1,1.636391E0,-1.687559E0,-3.2138398E0,-1.2799891E0,-4.619099E-1,1.9118692E-1,-2.2877843E0,5.210632E-1,-1.8895264E-1,3.4408352E0,-1.0783547E0,7.56736E-2,-5.1645553E-1],"categories":[],"categories_nodes":[],"categories_segments":[],"categories_sizes":[],"default_left":[0,0,0,0,0,0,0,0,0,0,0,0,0,0,0,0,0,0,0,0,0,0,0,0,0,0,0,0,0,0,0,0,0,0,0,0,0,0,0,0,0,0,0,0,0,0,0,0,0,0,0,0,0,0,0,0,0,0,0,0,0,0,0,0,0,0,0,0,0,0,0,0,0,0,0,0,0,0,0,0,0,0,0,0,0,0,0,0,0,0,0,0,0,0,0,0,0,0,0,0,0,0,0,0,0],"id":17,"left_children":[1,3,5,7,9,11,13,15,17,19,21,23,25,27,29,31,33,35,37,39,41,43,45,47,49,51,53,-1,55,57,59,61,63,65,-1,67,69,71,73,75,-1,77,79,81,83,85,87,89,-1,-1,91,-1,-1,93,95,-1,-1,97,99,101,103,-1,-1,-1,-1,-1,-1,-1,-1,-1,-1,-1,-1,-1,-1,-1,-1,-1,-1,-1,-1,-1,-1,-1,-1,-1,-1,-1,-1,-1,-1,-1,-1,-1,-1,-1,-1,-1,-1,-1,-1,-1,-1,-1,-1],"loss_changes":[8.779867E1,1.5207352E2,1.4035043E2,5.9966876E2,5.359961E2,6.6925653E2,2.1965129E2,2.570583E2,8.526074E2,5.569859E2,4.6478015E2,2.0771722E2,1.0310303E2,2.0583894E2,1.2902254E2,3.1030777E2,9.73526E2,5.878843E2,1.3154696E3,1.1599983E3,8.186926E2,4.604665E2,1.4103928E3,9.567017E0,2.942956E2,5.419119E1,2.335028E1,0E0,4.7934143E1,5.970762E2,4.2725833E2,6.9293933E2,1.3683157E3,2.3738922E2,0E0,3.597888E1,4.2013916E2,1.5058453E3,1.6212296E2,5.316117E2,0E0,3.507605E2,6.664169E2,1.0627953E3,8.0719226E2,7.394315E2,6.19754E2,5.6394463E1,0E0,0E0,2.660545E2,0E0,0E0,2.690979E1,1.915657E0,0E0,0E0,1.2935913E2,6.748322E1,4.0707047E2,1.6891296E2,0E0,0E0,0E0,0E0,0E0,0E0,0E0,0E0,0E0,0E0,0E0,0E0,0E0,0E0,0E0,0E0,0E0,0E0,0E0,0E0,0E0,0E0,0E0,0E0,0E0,0E0,0E0,0E0,0E0,0E0,0E0,0E0,0E0,0E0,0E0,0E0,0E0,0E0,0E0,0E0,0E0,0E0,0E0,0E0],"parents":[2147483647,0,0,1,1,2,2,3,3,4,4,5,5,6,6,7,7,8,8,9,9,10,10,11,11,12,12,13,13,14,14,15,15,16,16,17,17,18,18,19,19,20,20,21,21,22,22,23,23,24,24,25,25,26,26,28,28,29,29,30,30,31,31,32,32,33,33,35,35,36,36,37,37,38,38,39,39,41,41,42,42,43,43,44,44,45,45,46,46,47,47,50,50,53,53,54,54,57,57,58,58,59,59,60,60],"right_children":[2,4,6,8,10,12,14,16,18,20,22,24,26,28,30,32,34,36,38,40,42,44,46,48,50,52,54,-1,56,58,60,62,64,66,-1,68,70,72,74,76,-1,78,80,82,84,86,88,90,-1,-1,92,-1,-1,94,96,-1,-1,98,100,102,104,-1,-1,-1,-1,-1,-1,-1,-1,-1,-1,-1,-1,-1,-1,-1,-1,-1,-1,-1,-1,-1,-1,-1,-1,-1,-1,-1,-1,-1,-1,-1,-1,-1,-1,-1,-1,-1,-1,-1,-1,-1,-1,-1,-1],"split_conditions":[1.8035585E1,2.226477E1,1.91835E1,2.0774214E1,2.4014996E1,1E-1,1.9254335E1,6.9999995E0,9.700166E0,1.739702E2,2.5862436E1,7.8842476E1,1.5192682E1,1.8681883E1,1.811841E1,7.5939164E0,2.0532627E1,-3.1477501E0,1.0766834E1,2.3828083E1,2.3051247E1,2.4157239E2,2.6127295E1,1.9018917E1,1.9487576E2,1.8243917E1,4E0,-1.2453765E0,2.4144165E1,2.1512667E1,1.835647E1,1.9493261E1,8.668916E0,3.7670284E1,6.112056E0,-3.926917E0,2.1072763E1,1E-1,1.6699211E2,3.2085E0,6.846955E0,2.1355832E0,2.0147498E0,1.2008498E1,9.645999E0,2.7311075E2,2.6807312E1,1.7313717E1,-1.7025279E0,2.96775E0,3.0475937E2,1.265466E0,-9.504505E-1,1.8939749E1,1.8458498E1,3.458325E0,8.810883E-1,2.5602135E1,2.3006414E1,4E-1,2.5106087E2,-2.0050405E-2,-1.8736211E0,2.5790987E0,-3.6268834E-2,-2.208916E0,6.7856205E-1,3.9467698E-1,3.0968332E0,2.3449678E0,-2.4015636E0,7.292837E-1,1.1018196E1,3.1925938E-1,-1.2430261E0,1.6758233E0,-1.3378891E0,5.7951865E0,1.868657E0,-9.4477534E-1,1.718115E0,-2.9765143E0,9.3270975E-1,7.604415E-1,-2.3518488E0,5.7848125E0,6.867424E-1,-1.2210877E0,2.337069E-1,4.6264613E-1,-1.4266762E0,-8.32986E-1,1.636391E0,-1.687559E0,-3.2138398E0,-1.2799891E0,-4.619099E-1,1.9118692E-1,-2.2877843E0,5.210632E-1,-1.8895264E-1,3.4408352E0,-1.0783547E0,7.56736E-2,-5.1645553E-1],"split_indices":[0,2,0,2,2,1,0,1,0,3,2,3,2,2,2,0,2,0,0,2,2,3,2,0,3,0,1,0,2,0,2,2,0,3,0,0,3,1,3,0,0,0,0,0,0,3,2,2,0,0,3,0,0,0,0,0,0,3,0,1,3,0,0,0,0,0,0,0,0,0,0,0,0,0,0,0,0,0,0,0,0,0,0,0,0,0,0,0,0,0,0,0,0,0,0,0,0,0,0,0,0,0,0,0,0],"split_type":[0,0,0,0,0,0,0,0,0,0,0,0,0,0,0,0,0,0,0,0,0,0,0,0,0,0,0,0,0,0,0,0,0,0,0,0,0,0,0,0,0,0,0,0,0,0,0,0,0,0,0,0,0,0,0,0,0,0,0,0,0,0,0,0,0,0,0,0,0,0,0,0,0,0,0,0,0,0,0,0,0,0,0,0,0,0,0,0,0,0,0,0,0,0,0,0,0,0,0,0,0,0,0,0,0],"sum_hessian":[1.159E3,7.78E2,3.81E2,3.85E2,3.93E2,4.5E1,3.36E2,3.21E2,6.4E1,7.4E1,3.19E2,2.3E1,2.2E1,5E0,3.31E2,3E2,2.1E1,3.5E1,2.9E1,2.8E1,4.6E1,6.4E1,2.55E2,5E0,1.8E1,2E0,2E1,1E0,4E0,6.6E1,2.65E2,1.54E2,1.46E2,1.9E1,2E0,2E0,3.3E1,5E0,2.4E1,2.7E1,1E0,1E1,3.6E1,2.6E1,3.8E1,1E1,2.45E2,4E0,1E0,4E0,1.4E1,1E0,1E0,1.4E1,6E0,2E0,2E0,1.6E1,5E1,7E0,2.58E2,1.34E2,2E1,2E1,1.26E2,2E0,1.7E1,1E0,1E0,1E0,3.2E1,4E0,1E0,9E0,1.5E1,6E0,2.1E1,4E0,6E0,1.2E1,2.4E1,1.7E1,9E0,2.9E1,9E0,5E0,5E0,2.9E1,2.16E2,2E0,2E0,8E0,6E0,1.1E1,3E0,4E0,2E0,2E0,1.4E1,1.8E1,3.2E1,5E0,2E0,2.04E2,5.4E1],"tree_param":{"num_deleted":"0","num_feature":"5","num_nodes":"105","size_leaf_vector":"1"}},{"base_weights":[4.36654E-2,-1.7256597E-1,3.037167E-1,-3.0762486E-2,-3.938269E0,1.2751423E1,1.6005777E-1,-7.282499E-2,6.380945E0,6.2437975E-1,-6.915999E0,8.527759E0,-2.1922617E0,3.8009427E0,-7.7430536E-3,3.1269193E0,-1.5336841E-1,-5.1949465E-1,4.607809E0,-2.9659204E0,2.997116E0,-8.213769E0,5.8041507E-1,2.2790223E-1,-1.0288396E0,6.569748E0,-5.138964E0,5.185387E0,-8.131424E-2,5.9712267E0,-3.0722158E0,5.469159E-2,-1.2221166E0,-4.0997887E-1,-2.126749E0,-1.0236862E1,-1.6083679E0,6.021269E-1,-3.4094012E-1,-8.8934994E-1,1.1397297E1,-4.1920796E-1,-1.682344E0,-1.9992304E0,3.3220975E0,-3.503128E0,9.321834E-2,-6.319115E-1,4.723846E0,-1.3532554E-1,5.020703E-1,-1.195443E0,1.4209501E-1,-5.822405E-1,5.3033334E-1,-3.5690126E0,-8.8547975E-1,1.0568619E-2,-6.5039295E-1,2.275427E0,-2.2472298E0,8.7570764E-2,3.743594E0,1.5172978E-1,-9.008454E-1,6.491344E-2,-1.6129215E0,1.0409174E0,-3.0591534E-3],"categories":[],"categories_nodes":[],"categories_segments":[],"categories_sizes":[],"default_left":[0,0,0,0,0,0,0,0,0,0,0,0,0,0,0,0,0,0,0,0,0,0,0,0,0,0,0,0,0,0,0,0,0,0,0,0,0,0,0,0,0,0,0,0,0,0,0,0,0,0,0,0,0,0,0,0,0,0,0,0,0,0,0,0,0,0,0,0,0],"id":18,"left_children":[1,3,5,7,9,11,13,15,17,19,21,-1,23,25,27,29,31,-1,-1,33,-1,35,37,-1,-1,39,41,43,45,47,-1,49,51,53,-1,55,57,-1,-1,59,61,-1,-1,63,-1,65,67,-1,-1,-1,-1,-1,-1,-1,-1,-1,-1,-1,-1,-1,-1,-1,-1,-1,-1,-1,-1,-1,-1],"loss_changes":[6.5280655E1,3.3842838E2,9.403531E2,1.6551651E2,3.16804E2,1.46772E3,3.1894193E2,1.5743005E2,3.1795007E2,3.6589847E2,1.4096808E2,0E0,1.7213852E1,6.030775E2,1.9145403E2,6.314747E2,1.3237329E2,0E0,0E0,8.140375E1,0E0,1.4389545E2,9.629287E0,0E0,0E0,6.5830096E2,2.6893463E0,3.1827362E2,2.9535226E2,1.0596202E3,0E0,4.0933102E2,4.5632104E2,2.3433464E1,0E0,7.371741E1,3.7554579E0,0E0,0E0,5.0434445E2,1.2845447E2,0E0,0E0,1.1574654E1,0E0,1.683873E2,1.6450064E2,0E0,0E0,0E0,0E0,0E0,0E0,0E0,0E0,0E0,0E0,0E0,0E0,0E0,0E0,0E0,0E0,0E0,0E0,0E0,0E0,0E0,0E0],"parents":[2147483647,0,0,1,1,2,2,3,3,4,4,5,5,6,6,7,7,8,8,9,9,10,10,12,12,13,13,14,14,15,15,16,16,19,19,21,21,22,22,25,25,26,26,27,27,28,28,29,29,31,31,32,32,33,33,35,35,36,36,39,39,40,40,43,43,45,45,46,46],"right_children":[2,4,6,8,10,12,14,16,18,20,22,-1,24,26,28,30,32,-1,-1,34,-1,36,38,-1,-1,40,42,44,46,48,-1,50,52,54,-1,56,58,-1,-1,60,62,-1,-1,64,-1,66,68,-1,-1,-1,-1,-1,-1,-1,-1,-1,-1,-1,-1,-1,-1,-1,-1,-1,-1,-1,-1,-1,-1],"split_conditions":[2.3590312E2,2.2812746E2,2.3653453E2,4.9493126E1,2.0929596E1,8.591834E0,2.4104172E2,4.126667E-1,1.7553917E2,1.8388212E1,1.9018917E1,8.527759E0,1.9602652E1,1.7429333E1,9.3669195E0,2.3683512E1,2.9407835E1,-5.1949465E-1,4.607809E0,2.3334714E2,2.997116E0,3.2048088E1,2.4333498E1,2.2790223E-1,-1.0288396E0,4.4501667E0,1.8458498E1,8.647496E0,1.285205E1,-8.685836E-1,-3.0722158E0,2.4363249E1,2.1E0,1.8E1,-2.126749E0,2.3198459E2,4.640091E1,6.021269E-1,-3.4094012E-1,2.3807698E2,1.285205E1,-4.1920796E-1,-1.682344E0,2.719431E2,3.3220975E0,1.1345712E1,1.4044615E1,-6.319115E-1,4.723846E0,-1.3532554E-1,5.020703E-1,-1.195443E0,1.4209501E-1,-5.822405E-1,5.3033334E-1,-3.5690126E0,-8.8547975E-1,1.0568619E-2,-6.5039295E-1,2.275427E0,-2.2472298E0,8.7570764E-2,3.743594E0,1.5172978E-1,-9.008454E-1,6.491344E-2,-1.6129215E0,1.0409174E0,-3.0591534E-3],"split_indices":[3,3,3,2,2,0,3,0,3,2,0,0,2,0,2,2,2,0,0,3,0,2,0,0,0,0,0,2,2,0,0,2,1,2,0,3,2,0,0,3,2,0,0,3,0,2,2,0,0,0,0,0,0,0,0,0,0,0,0,0,0,0,0,0,0,0,0,0,0],"split_type":[0,0,0,0,0,0,0,0,0,0,0,0,0,0,0,0,0,0,0,0,0,0,0,0,0,0,0,0,0,0,0,0,0,0,0,0,0,0,0,0,0,0,0,0,0,0,0,0,0,0,0,0,0,0,0,0,0,0,0,0,0,0,0,0,0,0,0,0,0],"sum_hessian":[1.159E3,6.33E2,5.26E2,6.11E2,2.2E1,5E0,5.21E2,6.08E2,3E0,9E0,1.3E1,2E0,3E0,2.2E1,4.99E2,1.4E1,5.94E2,2E0,1E0,7E0,2E0,1.1E1,2E0,1E0,2E0,1.7E1,5E0,6E0,4.93E2,1.2E1,2E0,4.98E2,9.6E1,5E0,2E0,8E0,3E0,1E0,1E0,7E0,1E1,1E0,4E0,3E0,3E0,2.3E1,4.7E2,7E0,5E0,3.8E2,1.18E2,3.6E1,6E1,3E0,2E0,6E0,2E0,1E0,2E0,3E0,4E0,1E0,9E0,1E0,2E0,8E0,1.5E1,1.3E1,4.57E2],"tree_param":{"num_deleted":"0","num_feature":"5","num_nodes":"69","size_leaf_vector":"1"}},{"base_weights":[4.087137E-2,-3.336368E-1,1.9017418E-1,-2.026822E0,-2.3441412E-1,2.3072932E0,2.8127298E-2,5.80511E-1,-1.0680138E0,8.446448E0,1.376218E0,-4.0751715E0,1.8230748E-1,3.602224E-1,1.918451E0,-8.960482E0,-8.114926E-1,5.9830647E0,-8.76058E-2,-2.5358167E0,-3.803204E0,1.6548517E1,9.3834236E-2,5.541008E-1,-5.799605E0,-3.3985486E0,-1.0816926E0,5.228166E0,-1.0430381E0,6.6588106E0,-4.202448E-1,-1.4479457E0,1.10847025E1,-6.678588E0,6.7127E-1,7.636584E0,-1.5257645E0,4.722005E0,-2.7752887E-2,2.6268482E-1,-9.22396E-1,1.102889E0,-2.7262964E0,-1.376742E0,4.972556E0,-5.148722E-1,4.9851078E-1,2.9018648E0,1.2733376E0,-2.078471E0,-9.31553E-2,4.2916408E0,-2.697544E-1,-2.9347715E0,3.5970843E-1,1.3440886E0,-2.3528519E0,-1.5605439E0,2.0723503E0,-1.9171787E-2,3.9166377E0],"categories":[],"categories_nodes":[],"categories_segments":[],"categories_sizes":[],"default_left":[0,0,0,0,0,0,0,0,0,0,0,0,0,0,0,0,0,0,0,0,0,0,0,0,0,0,0,0,0,0,0,0,0,0,0,0,0,0,0,0,0,0,0,0,0,0,0,0,0,0,0,0,0,0,0,0,0,0,0,0,0],"id":19,"left_children":[1,3,5,-1,7,9,11,13,15,-1,17,19,21,23,-1,25,27,29,31,33,-1,35,37,39,41,-1,-1,43,45,47,-1,49,51,53,55,-1,-1,57,59,-1,-1,-1,-1,-1,-1,-1,-1,-1,-1,-1,-1,-1,-1,-1,-1,-1,-1,-1,-1,-1,-1],"loss_changes":[6.492499E1,2.0934648E2,2.8468533E2,0E0,2.2275807E2,1.3811466E3,4.8914667E2,2.1031416E2,3.2071155E2,0E0,3.9165363E2,3.3862296E2,1.077186E3,1.9548904E2,0E0,2.2555145E1,2.2640918E2,7.9182556E1,6.9996625E2,3.366388E2,0E0,9.002323E2,4.1767374E2,1.8586403E2,1.8919505E2,0E0,0E0,7.444488E2,2.814402E2,5.3545227E1,0E0,2.5341956E2,2.0584961E2,2.8070157E2,5.2159503E2,0E0,0E0,4.4807684E2,3.4328503E2,0E0,0E0,0E0,0E0,0E0,0E0,0E0,0E0,0E0,0E0,0E0,0E0,0E0,0E0,0E0,0E0,0E0,0E0,0E0,0E0,0E0,0E0],"parents":[2147483647,0,0,1,1,2,2,4,4,5,5,6,6,7,7,8,8,10,10,11,11,12,12,13,13,15,15,16,16,17,17,18,18,19,19,21,21,22,22,23,23,24,24,27,27,28,28,29,29,31,31,32,32,33,33,34,34,37,37,38,38],"right_children":[2,4,6,-1,8,10,12,14,16,-1,18,20,22,24,-1,26,28,30,32,34,-1,36,38,40,42,-1,-1,44,46,48,-1,50,52,54,56,-1,-1,58,60,-1,-1,-1,-1,-1,-1,-1,-1,-1,-1,-1,-1,-1,-1,-1,-1,-1,-1,-1,-1,-1,-1],"split_conditions":[1.6252785E2,9.676569E0,1.4044615E1,-2.026822E0,8.470098E1,1.7916318E2,1.5053425E1,8.111591E1,8.795929E1,8.446448E0,2.3807698E2,1.4879153E1,1.5192682E1,8.002975E1,1.918451E0,7.7418327E0,9.113661E1,1.3849476E1,1.3849476E1,5.646E0,-3.803204E0,8.591834E0,1.6699211E2,2.6099998E1,2.9459999E0,-3.3985486E0,-1.0816926E0,6.0314174E0,2.5567604E1,2.0293396E2,-4.202448E-1,2.555072E2,2.1355832E0,1.457889E1,6E-1,7.636584E0,-1.5257645E0,2.0188908E1,4.8300003E1,2.6268482E-1,-9.22396E-1,1.102889E0,-2.7262964E0,-1.376742E0,4.972556E0,-5.148722E-1,4.9851078E-1,2.9018648E0,1.2733376E0,-2.078471E0,-9.31553E-2,4.2916408E0,-2.697544E-1,-2.9347715E0,3.5970843E-1,1.3440886E0,-2.3528519E0,-1.5605439E0,2.0723503E0,-1.9171787E-2,3.9166377E0],"split_indices":[3,2,2,0,3,3,2,3,3,0,3,2,2,3,0,0,3,2,2,0,0,0,3,1,0,0,0,0,2,3,0,3,0,2,1,0,0,2,1,0,0,0,0,0,0,0,0,0,0,0,0,0,0,0,0,0,0,0,0,0,0],"split_type":[0,0,0,0,0,0,0,0,0,0,0,0,0,0,0,0,0,0,0,0,0,0,0,0,0,0,0,0,0,0,0,0,0,0,0,0,0,0,0,0,0,0,0,0,0,0,0,0,0,0,0,0,0,0,0,0,0,0,0,0,0],"sum_hessian":[1.159E3,3.3E2,8.29E2,4E0,3.26E2,5.8E1,7.71E2,1.65E2,1.61E2,1E0,5.7E1,2.7E1,7.44E2,1.6E2,5E0,4E0,1.57E2,1.3E1,4.4E1,2.4E1,3E0,3E0,7.41E2,1.56E2,4E0,2E0,2E0,5E0,1.52E2,1.2E1,1E0,4E1,4E0,1E1,1.4E1,2E0,1E0,1.8E1,7.23E2,1.44E2,1.2E1,1E0,3E0,3E0,2E0,1.22E2,3E1,4E0,8E0,6E0,3.4E1,3E0,1E0,7E0,3E0,1E1,4E0,3E0,1.5E1,7.22E2,1E0],"tree_param":{"num_deleted":"0","num_feature":"5","num_nodes":"61","size_leaf_vector":"1"}},{"base_weights":[4.0586896E-2,-1.8531672E0,7.374596E-2,-8.887688E0,-5.7779336E-1,5.375796E0,5.036514E-2,-8.3645844E-1,-3.1630013E0,-1.7216247E0,3.8560228E0,-1.1582497E0,2.5950484E0,8.050309E-1,-2.4785522E-2,-3.875885E-1,-2.5679169E0,1.6946212E0,4.1266176E-1,4.0196925E-1,8.624644E0,-4.9794807E0,2.353001E-2,-5.4513174E-1,5.476395E-1,-3.9670858E0,-1.2071514E0,1.3554893E0,-2.4746695E0,2.852585E0,7.6331353E-1,-1.7691313E0,-2.350801E0,-2.3861873E0,7.6256625E-2,3.1390402E-1,-2.170784E-1,-1.4031193E0,-2.755726E-1,2.1660157E-1,-7.0566934E-1,7.885876E-1,-6.1303866E-1,-2.8259838E0,-8.020592E-2,5.664711E-2,-8.385945E-1,1.5671705E0,-1.0225174E0,-2.7187228E-1,4.728261E-2],"categories":[],"categories_nodes":[],"categories_segments":[],"categories_sizes":[],"default_left":[0,0,0,0,0,0,0,0,0,0,0,0,0,0,0,0,0,0,0,0,0,0,0,0,0,0,0,0,0,0,0,0,0,0,0,0,0,0,0,0,0,0,0,0,0,0,0,0,0,0,0],"id":20,"left_children":[1,3,5,7,9,11,13,-1,-1,15,17,-1,-1,19,21,23,25,-1,-1,27,29,31,33,-1,35,37,39,41,43,-1,-1,45,-1,47,49,-1,-1,-1,-1,-1,-1,-1,-1,-1,-1,-1,-1,-1,-1,-1,-1],"loss_changes":[7.2979E1,1.7429762E2,1.4117477E2,8.989868E-1,9.7926315E1,1.8461726E2,6.450335E1,0E0,0E0,1.5939468E1,1.0017136E1,0E0,0E0,3.211671E2,2.478845E2,1.035359E1,1.2346596E1,0E0,0E0,2.7490472E2,2.68042E0,7.784143E1,1.3054167E2,0E0,3.9269993E0,4.3612747E0,1.4952552E1,3.2992108E2,3.8074213E2,0E0,0E0,1.2583147E1,0E0,1.8894444E2,8.047067E1,0E0,0E0,0E0,0E0,0E0,0E0,0E0,0E0,0E0,0E0,0E0,0E0,0E0,0E0,0E0,0E0],"parents":[2147483647,0,0,1,1,2,2,3,3,4,4,5,5,6,6,9,9,10,10,13,13,14,14,15,15,16,16,19,19,20,20,21,21,22,22,24,24,25,25,26,26,27,27,28,28,31,31,33,33,34,34],"right_children":[2,4,6,8,10,12,14,-1,-1,16,18,-1,-1,20,22,24,26,-1,-1,28,30,32,34,-1,36,38,40,42,44,-1,-1,46,-1,48,50,-1,-1,-1,-1,-1,-1,-1,-1,-1,-1,-1,-1,-1,-1,-1,-1],"split_conditions":[9.201785E0,1.3896187E1,1.1466662E1,1.271E0,2.5323128E1,-2.3316668E-1,4.7099996E-1,-8.3645844E-1,-3.1630013E0,1.7238699E1,3.9251664E0,-1.1582497E0,2.5950484E0,4.126667E-1,7.314167E-1,5.2855835E0,2.289611E1,1.6946212E0,4.1266176E-1,3.137812E2,2.2277134E1,2.903116E2,1.1901798E1,-5.4513174E-1,1.970433E1,6.4376664E0,1.6031416E1,2.4363249E1,3.186572E2,2.852585E0,7.6331353E-1,6.605832E-1,-2.350801E0,2.1355832E0,3.1710002E0,3.1390402E-1,-2.170784E-1,-1.4031193E0,-2.755726E-1,2.1660157E-1,-7.0566934E-1,7.885876E-1,-6.1303866E-1,-2.8259838E0,-8.020592E-2,5.664711E-2,-8.385945E-1,1.5671705E0,-1.0225174E0,-2.7187228E-1,4.728261E-2],"split_indices":[3,2,3,0,2,0,0,0,0,2,0,0,0,0,0,0,2,0,0,3,2,3,2,0,0,0,0,2,3,0,0,0,0,0,0,0,0,0,0,0,0,0,0,0,0,0,0,0,0,0,0],"split_type":[0,0,0,0,0,0,0,0,0,0,0,0,0,0,0,0,0,0,0,0,0,0,0,0,0,0,0,0,0,0,0,0,0,0,0,0,0,0,0,0,0,0,0,0,0,0,0,0,0,0,0],"sum_hessian":[1.159E3,1.9E1,1.14E3,2E0,1.7E1,4E0,1.136E3,1E0,1E0,1.4E1,3E0,1E0,3E0,1.02E2,1.034E3,6E0,8E0,1E0,2E0,9.8E1,4E0,9E0,1.025E3,2E0,4E0,3E0,5E0,7.4E1,2.4E1,3E0,1E0,5E0,4E0,2.1E1,1.004E3,3E0,1E0,2E0,1E0,2E0,3E0,5.4E1,2E1,5E0,1.9E1,2E0,3E0,2E0,1.9E1,7.6E1,9.28E2],"tree_param":{"num_deleted":"0","num_feature":"5","num_nodes":"51","size_leaf_vector":"1"}},{"base_weights":[2.4101105E-2,-1.4659902E-1,3.8465768E-1,-4.3890137E-2,-8.132961E0,1.259439E1,2.1817172E-1,-4.6318603E0,7.071607E-2,-3.8398366E0,-2.888724E0,-1.8121477E0,6.8408394E0,2.2103844E0,-9.3793295E-2,1.9011505E0,-6.50074E0,2.1216072E-2,6.2959294E0,-4.1424193E0,5.06963E-1,-1.9972373E0,1.1817708E0,6.4837704E0,-8.546654E-1,-6.388424E-1,1.3062081E0,-1.5225976E0,4.9141006E0,-3.657073E0,-1.1456659E1,1.210974E-1,-3.8595016E0,-8.798853E-2,9.509886E0,2.4655152E-2,-1.565735E0,8.775409E0,-7.078921E-1,-2.5943892E0,1.0854585E-2,-8.834242E0,-3.052216E-1,1.4385229E1,3.6761603E-1,1.71625E0,3.7408563E-1,1.1033127E0,-1.7086978E0,-9.2511755E-1,-3.8336885E0,1.3733259E-2,2.0964942E0,-2.4379168E0,2.380006E-1,2.0018692E-1,-2.3978177E-1,4.7739587E0,6.213154E-1,-5.909872E-1,3.1353517E0,-7.503571E-1,5.757408E-1,2.3343596E0,-1.6953854E-1,8.3452266E-1,-4.5317574E0,1.8068122E0,-1.7060761E-1,7.238445E-1,7.666012E0,2.3789291E0,-6.124208E-2],"categories":[],"categories_nodes":[],"categories_segments":[],"categories_sizes":[],"default_left":[0,0,0,0,0,0,0,0,0,0,0,0,0,0,0,0,0,0,0,0,0,0,0,0,0,0,0,0,0,0,0,0,0,0,0,0,0,0,0,0,